digraph Tree {
node [shape=box, style="filled, rounded", color="black", fontname=helvetica] ;
edge [fontname=helvetica] ;
0 [label=<alcohol &le; 10.117<br/>gini = 0.435<br/>samples = 2940<br/>value = [938, 2002]<br/>class = u>, fillcolor="#399de588"] ;
1 [label=<volatile acidity &le; 0.265<br/>gini = 0.5<br/>samples = 1306<br/>value = [647, 659]<br/>class = u>, fillcolor="#399de505"] ;
0 -> 1 [labeldistance=2.5, labelangle=45, headlabel="True"] ;
2 [label=<volatile acidity &le; 0.237<br/>gini = 0.439<br/>samples = 656<br/>value = [213, 443]<br/>class = u>, fillcolor="#399de584"] ;
1 -> 2 ;
3 [label=<chlorides &le; 0.034<br/>gini = 0.382<br/>samples = 443<br/>value = [114, 329]<br/>class = u>, fillcolor="#399de5a7"] ;
2 -> 3 ;
4 [label=<citric acid &le; 0.345<br/>gini = 0.465<br/>samples = 19<br/>value = [12, 7]<br/>class = q>, fillcolor="#e581396a"] ;
3 -> 4 ;
5 [label=<total sulfur dioxide &le; 96.5<br/>gini = 0.486<br/>samples = 12<br/>value = [5, 7]<br/>class = u>, fillcolor="#399de549"] ;
4 -> 5 ;
6 [label=<gini = 0.0<br/>samples = 3<br/>value = [3, 0]<br/>class = q>, fillcolor="#e58139ff"] ;
5 -> 6 ;
7 [label=<alcohol &le; 9.2<br/>gini = 0.346<br/>samples = 9<br/>value = [2, 7]<br/>class = u>, fillcolor="#399de5b6"] ;
5 -> 7 ;
8 [label=<gini = 0.0<br/>samples = 2<br/>value = [2, 0]<br/>class = q>, fillcolor="#e58139ff"] ;
7 -> 8 ;
9 [label=<gini = 0.0<br/>samples = 7<br/>value = [0, 7]<br/>class = u>, fillcolor="#399de5ff"] ;
7 -> 9 ;
10 [label=<gini = 0.0<br/>samples = 7<br/>value = [7, 0]<br/>class = q>, fillcolor="#e58139ff"] ;
4 -> 10 ;
11 [label=<free sulfur dioxide &le; 23.5<br/>gini = 0.365<br/>samples = 424<br/>value = [102, 322]<br/>class = u>, fillcolor="#399de5ae"] ;
3 -> 11 ;
12 [label=<residual sugar &le; 3.15<br/>gini = 0.474<br/>samples = 75<br/>value = [29, 46]<br/>class = u>, fillcolor="#399de55e"] ;
11 -> 12 ;
13 [label=<total sulfur dioxide &le; 98.5<br/>gini = 0.469<br/>samples = 32<br/>value = [20, 12]<br/>class = q>, fillcolor="#e5813966"] ;
12 -> 13 ;
14 [label=<total sulfur dioxide &le; 54.5<br/>gini = 0.444<br/>samples = 15<br/>value = [5, 10]<br/>class = u>, fillcolor="#399de57f"] ;
13 -> 14 ;
15 [label=<gini = 0.0<br/>samples = 2<br/>value = [2, 0]<br/>class = q>, fillcolor="#e58139ff"] ;
14 -> 15 ;
16 [label=<pH &le; 3.29<br/>gini = 0.355<br/>samples = 13<br/>value = [3, 10]<br/>class = u>, fillcolor="#399de5b3"] ;
14 -> 16 ;
17 [label=<density &le; 0.993<br/>gini = 0.165<br/>samples = 11<br/>value = [1, 10]<br/>class = u>, fillcolor="#399de5e6"] ;
16 -> 17 ;
18 [label=<gini = 0.0<br/>samples = 9<br/>value = [0, 9]<br/>class = u>, fillcolor="#399de5ff"] ;
17 -> 18 ;
19 [label=<chlorides &le; 0.053<br/>gini = 0.5<br/>samples = 2<br/>value = [1, 1]<br/>class = q>, fillcolor="#e5813900"] ;
17 -> 19 ;
20 [label=<gini = 0.0<br/>samples = 1<br/>value = [1, 0]<br/>class = q>, fillcolor="#e58139ff"] ;
19 -> 20 ;
21 [label=<gini = 0.0<br/>samples = 1<br/>value = [0, 1]<br/>class = u>, fillcolor="#399de5ff"] ;
19 -> 21 ;
22 [label=<gini = 0.0<br/>samples = 2<br/>value = [2, 0]<br/>class = q>, fillcolor="#e58139ff"] ;
16 -> 22 ;
23 [label=<volatile acidity &le; 0.215<br/>gini = 0.208<br/>samples = 17<br/>value = [15, 2]<br/>class = q>, fillcolor="#e58139dd"] ;
13 -> 23 ;
24 [label=<gini = 0.0<br/>samples = 14<br/>value = [14, 0]<br/>class = q>, fillcolor="#e58139ff"] ;
23 -> 24 ;
25 [label=<sulphates &le; 0.44<br/>gini = 0.444<br/>samples = 3<br/>value = [1, 2]<br/>class = u>, fillcolor="#399de57f"] ;
23 -> 25 ;
26 [label=<gini = 0.0<br/>samples = 1<br/>value = [1, 0]<br/>class = q>, fillcolor="#e58139ff"] ;
25 -> 26 ;
27 [label=<gini = 0.0<br/>samples = 2<br/>value = [0, 2]<br/>class = u>, fillcolor="#399de5ff"] ;
25 -> 27 ;
28 [label=<volatile acidity &le; 0.205<br/>gini = 0.331<br/>samples = 43<br/>value = [9, 34]<br/>class = u>, fillcolor="#399de5bb"] ;
12 -> 28 ;
29 [label=<volatile acidity &le; 0.122<br/>gini = 0.059<br/>samples = 33<br/>value = [1, 32]<br/>class = u>, fillcolor="#399de5f7"] ;
28 -> 29 ;
30 [label=<chlorides &le; 0.048<br/>gini = 0.5<br/>samples = 2<br/>value = [1, 1]<br/>class = q>, fillcolor="#e5813900"] ;
29 -> 30 ;
31 [label=<gini = 0.0<br/>samples = 1<br/>value = [1, 0]<br/>class = q>, fillcolor="#e58139ff"] ;
30 -> 31 ;
32 [label=<gini = 0.0<br/>samples = 1<br/>value = [0, 1]<br/>class = u>, fillcolor="#399de5ff"] ;
30 -> 32 ;
33 [label=<gini = 0.0<br/>samples = 31<br/>value = [0, 31]<br/>class = u>, fillcolor="#399de5ff"] ;
29 -> 33 ;
34 [label=<free sulfur dioxide &le; 15.5<br/>gini = 0.32<br/>samples = 10<br/>value = [8, 2]<br/>class = q>, fillcolor="#e58139bf"] ;
28 -> 34 ;
35 [label=<density &le; 0.999<br/>gini = 0.444<br/>samples = 3<br/>value = [1, 2]<br/>class = u>, fillcolor="#399de57f"] ;
34 -> 35 ;
36 [label=<gini = 0.0<br/>samples = 2<br/>value = [0, 2]<br/>class = u>, fillcolor="#399de5ff"] ;
35 -> 36 ;
37 [label=<gini = 0.0<br/>samples = 1<br/>value = [1, 0]<br/>class = q>, fillcolor="#e58139ff"] ;
35 -> 37 ;
38 [label=<gini = 0.0<br/>samples = 7<br/>value = [7, 0]<br/>class = q>, fillcolor="#e58139ff"] ;
34 -> 38 ;
39 [label=<sulphates &le; 0.415<br/>gini = 0.331<br/>samples = 349<br/>value = [73, 276]<br/>class = u>, fillcolor="#399de5bc"] ;
11 -> 39 ;
40 [label=<volatile acidity &le; 0.195<br/>gini = 0.457<br/>samples = 99<br/>value = [35, 64]<br/>class = u>, fillcolor="#399de574"] ;
39 -> 40 ;
41 [label=<citric acid &le; 0.295<br/>gini = 0.324<br/>samples = 59<br/>value = [12, 47]<br/>class = u>, fillcolor="#399de5be"] ;
40 -> 41 ;
42 [label=<chlorides &le; 0.077<br/>gini = 0.062<br/>samples = 31<br/>value = [1, 30]<br/>class = u>, fillcolor="#399de5f6"] ;
41 -> 42 ;
43 [label=<gini = 0.0<br/>samples = 30<br/>value = [0, 30]<br/>class = u>, fillcolor="#399de5ff"] ;
42 -> 43 ;
44 [label=<gini = 0.0<br/>samples = 1<br/>value = [1, 0]<br/>class = q>, fillcolor="#e58139ff"] ;
42 -> 44 ;
45 [label=<density &le; 0.997<br/>gini = 0.477<br/>samples = 28<br/>value = [11, 17]<br/>class = u>, fillcolor="#399de55a"] ;
41 -> 45 ;
46 [label=<density &le; 0.993<br/>gini = 0.499<br/>samples = 21<br/>value = [11, 10]<br/>class = q>, fillcolor="#e5813917"] ;
45 -> 46 ;
47 [label=<gini = 0.0<br/>samples = 3<br/>value = [0, 3]<br/>class = u>, fillcolor="#399de5ff"] ;
46 -> 47 ;
48 [label=<total sulfur dioxide &le; 122.0<br/>gini = 0.475<br/>samples = 18<br/>value = [11, 7]<br/>class = q>, fillcolor="#e581395d"] ;
46 -> 48 ;
49 [label=<gini = 0.0<br/>samples = 2<br/>value = [0, 2]<br/>class = u>, fillcolor="#399de5ff"] ;
48 -> 49 ;
50 [label=<chlorides &le; 0.051<br/>gini = 0.43<br/>samples = 16<br/>value = [11, 5]<br/>class = q>, fillcolor="#e581398b"] ;
48 -> 50 ;
51 [label=<alcohol &le; 9.4<br/>gini = 0.49<br/>samples = 7<br/>value = [3, 4]<br/>class = u>, fillcolor="#399de540"] ;
50 -> 51 ;
52 [label=<gini = 0.0<br/>samples = 3<br/>value = [3, 0]<br/>class = q>, fillcolor="#e58139ff"] ;
51 -> 52 ;
53 [label=<gini = 0.0<br/>samples = 4<br/>value = [0, 4]<br/>class = u>, fillcolor="#399de5ff"] ;
51 -> 53 ;
54 [label=<alcohol &le; 9.0<br/>gini = 0.198<br/>samples = 9<br/>value = [8, 1]<br/>class = q>, fillcolor="#e58139df"] ;
50 -> 54 ;
55 [label=<gini = 0.0<br/>samples = 1<br/>value = [0, 1]<br/>class = u>, fillcolor="#399de5ff"] ;
54 -> 55 ;
56 [label=<gini = 0.0<br/>samples = 8<br/>value = [8, 0]<br/>class = q>, fillcolor="#e58139ff"] ;
54 -> 56 ;
57 [label=<gini = 0.0<br/>samples = 7<br/>value = [0, 7]<br/>class = u>, fillcolor="#399de5ff"] ;
45 -> 57 ;
58 [label=<chlorides &le; 0.056<br/>gini = 0.489<br/>samples = 40<br/>value = [23, 17]<br/>class = q>, fillcolor="#e5813943"] ;
40 -> 58 ;
59 [label=<pH &le; 3.33<br/>gini = 0.337<br/>samples = 28<br/>value = [22, 6]<br/>class = q>, fillcolor="#e58139b9"] ;
58 -> 59 ;
60 [label=<total sulfur dioxide &le; 223.0<br/>gini = 0.165<br/>samples = 22<br/>value = [20, 2]<br/>class = q>, fillcolor="#e58139e6"] ;
59 -> 60 ;
61 [label=<residual sugar &le; 17.625<br/>gini = 0.091<br/>samples = 21<br/>value = [20, 1]<br/>class = q>, fillcolor="#e58139f2"] ;
60 -> 61 ;
62 [label=<gini = 0.0<br/>samples = 18<br/>value = [18, 0]<br/>class = q>, fillcolor="#e58139ff"] ;
61 -> 62 ;
63 [label=<sulphates &le; 0.375<br/>gini = 0.444<br/>samples = 3<br/>value = [2, 1]<br/>class = q>, fillcolor="#e581397f"] ;
61 -> 63 ;
64 [label=<gini = 0.0<br/>samples = 2<br/>value = [2, 0]<br/>class = q>, fillcolor="#e58139ff"] ;
63 -> 64 ;
65 [label=<gini = 0.0<br/>samples = 1<br/>value = [0, 1]<br/>class = u>, fillcolor="#399de5ff"] ;
63 -> 65 ;
66 [label=<gini = 0.0<br/>samples = 1<br/>value = [0, 1]<br/>class = u>, fillcolor="#399de5ff"] ;
60 -> 66 ;
67 [label=<residual sugar &le; 9.3<br/>gini = 0.444<br/>samples = 6<br/>value = [2, 4]<br/>class = u>, fillcolor="#399de57f"] ;
59 -> 67 ;
68 [label=<gini = 0.0<br/>samples = 4<br/>value = [0, 4]<br/>class = u>, fillcolor="#399de5ff"] ;
67 -> 68 ;
69 [label=<gini = 0.0<br/>samples = 2<br/>value = [2, 0]<br/>class = q>, fillcolor="#e58139ff"] ;
67 -> 69 ;
70 [label=<total sulfur dioxide &le; 118.0<br/>gini = 0.153<br/>samples = 12<br/>value = [1, 11]<br/>class = u>, fillcolor="#399de5e8"] ;
58 -> 70 ;
71 [label=<chlorides &le; 0.059<br/>gini = 0.5<br/>samples = 2<br/>value = [1, 1]<br/>class = q>, fillcolor="#e5813900"] ;
70 -> 71 ;
72 [label=<gini = 0.0<br/>samples = 1<br/>value = [0, 1]<br/>class = u>, fillcolor="#399de5ff"] ;
71 -> 72 ;
73 [label=<gini = 0.0<br/>samples = 1<br/>value = [1, 0]<br/>class = q>, fillcolor="#e58139ff"] ;
71 -> 73 ;
74 [label=<gini = 0.0<br/>samples = 10<br/>value = [0, 10]<br/>class = u>, fillcolor="#399de5ff"] ;
70 -> 74 ;
75 [label=<density &le; 1.001<br/>gini = 0.258<br/>samples = 250<br/>value = [38, 212]<br/>class = u>, fillcolor="#399de5d1"] ;
39 -> 75 ;
76 [label=<fixed acidity &le; 5.45<br/>gini = 0.248<br/>samples = 248<br/>value = [36, 212]<br/>class = u>, fillcolor="#399de5d4"] ;
75 -> 76 ;
77 [label=<gini = 0.0<br/>samples = 2<br/>value = [2, 0]<br/>class = q>, fillcolor="#e58139ff"] ;
76 -> 77 ;
78 [label=<fixed acidity &le; 7.55<br/>gini = 0.238<br/>samples = 246<br/>value = [34, 212]<br/>class = u>, fillcolor="#399de5d6"] ;
76 -> 78 ;
79 [label=<citric acid &le; 0.535<br/>gini = 0.281<br/>samples = 195<br/>value = [33, 162]<br/>class = u>, fillcolor="#399de5cb"] ;
78 -> 79 ;
80 [label=<sulphates &le; 0.755<br/>gini = 0.257<br/>samples = 185<br/>value = [28, 157]<br/>class = u>, fillcolor="#399de5d2"] ;
79 -> 80 ;
81 [label=<free sulfur dioxide &le; 32.5<br/>gini = 0.225<br/>samples = 170<br/>value = [22, 148]<br/>class = u>, fillcolor="#399de5d9"] ;
80 -> 81 ;
82 [label=<pH &le; 3.265<br/>gini = 0.389<br/>samples = 34<br/>value = [9, 25]<br/>class = u>, fillcolor="#399de5a3"] ;
81 -> 82 ;
83 [label=<total sulfur dioxide &le; 112.0<br/>gini = 0.165<br/>samples = 22<br/>value = [2, 20]<br/>class = u>, fillcolor="#399de5e6"] ;
82 -> 83 ;
84 [label=<pH &le; 2.995<br/>gini = 0.48<br/>samples = 5<br/>value = [2, 3]<br/>class = u>, fillcolor="#399de555"] ;
83 -> 84 ;
85 [label=<gini = 0.0<br/>samples = 2<br/>value = [2, 0]<br/>class = q>, fillcolor="#e58139ff"] ;
84 -> 85 ;
86 [label=<gini = 0.0<br/>samples = 3<br/>value = [0, 3]<br/>class = u>, fillcolor="#399de5ff"] ;
84 -> 86 ;
87 [label=<gini = 0.0<br/>samples = 17<br/>value = [0, 17]<br/>class = u>, fillcolor="#399de5ff"] ;
83 -> 87 ;
88 [label=<volatile acidity &le; 0.18<br/>gini = 0.486<br/>samples = 12<br/>value = [7, 5]<br/>class = q>, fillcolor="#e5813949"] ;
82 -> 88 ;
89 [label=<gini = 0.0<br/>samples = 3<br/>value = [0, 3]<br/>class = u>, fillcolor="#399de5ff"] ;
88 -> 89 ;
90 [label=<total sulfur dioxide &le; 138.0<br/>gini = 0.346<br/>samples = 9<br/>value = [7, 2]<br/>class = q>, fillcolor="#e58139b6"] ;
88 -> 90 ;
91 [label=<gini = 0.0<br/>samples = 6<br/>value = [6, 0]<br/>class = q>, fillcolor="#e58139ff"] ;
90 -> 91 ;
92 [label=<sulphates &le; 0.475<br/>gini = 0.444<br/>samples = 3<br/>value = [1, 2]<br/>class = u>, fillcolor="#399de57f"] ;
90 -> 92 ;
93 [label=<gini = 0.0<br/>samples = 2<br/>value = [0, 2]<br/>class = u>, fillcolor="#399de5ff"] ;
92 -> 93 ;
94 [label=<gini = 0.0<br/>samples = 1<br/>value = [1, 0]<br/>class = q>, fillcolor="#e58139ff"] ;
92 -> 94 ;
95 [label=<residual sugar &le; 7.15<br/>gini = 0.173<br/>samples = 136<br/>value = [13, 123]<br/>class = u>, fillcolor="#399de5e4"] ;
81 -> 95 ;
96 [label=<density &le; 0.997<br/>gini = 0.349<br/>samples = 40<br/>value = [9, 31]<br/>class = u>, fillcolor="#399de5b5"] ;
95 -> 96 ;
97 [label=<pH &le; 3.15<br/>gini = 0.301<br/>samples = 38<br/>value = [7, 31]<br/>class = u>, fillcolor="#399de5c5"] ;
96 -> 97 ;
98 [label=<chlorides &le; 0.056<br/>gini = 0.494<br/>samples = 9<br/>value = [4, 5]<br/>class = u>, fillcolor="#399de533"] ;
97 -> 98 ;
99 [label=<chlorides &le; 0.042<br/>gini = 0.32<br/>samples = 5<br/>value = [4, 1]<br/>class = q>, fillcolor="#e58139bf"] ;
98 -> 99 ;
100 [label=<gini = 0.0<br/>samples = 1<br/>value = [0, 1]<br/>class = u>, fillcolor="#399de5ff"] ;
99 -> 100 ;
101 [label=<gini = 0.0<br/>samples = 4<br/>value = [4, 0]<br/>class = q>, fillcolor="#e58139ff"] ;
99 -> 101 ;
102 [label=<gini = 0.0<br/>samples = 4<br/>value = [0, 4]<br/>class = u>, fillcolor="#399de5ff"] ;
98 -> 102 ;
103 [label=<fixed acidity &le; 6.0<br/>gini = 0.185<br/>samples = 29<br/>value = [3, 26]<br/>class = u>, fillcolor="#399de5e2"] ;
97 -> 103 ;
104 [label=<pH &le; 3.485<br/>gini = 0.444<br/>samples = 3<br/>value = [2, 1]<br/>class = q>, fillcolor="#e581397f"] ;
103 -> 104 ;
105 [label=<gini = 0.0<br/>samples = 2<br/>value = [2, 0]<br/>class = q>, fillcolor="#e58139ff"] ;
104 -> 105 ;
106 [label=<gini = 0.0<br/>samples = 1<br/>value = [0, 1]<br/>class = u>, fillcolor="#399de5ff"] ;
104 -> 106 ;
107 [label=<free sulfur dioxide &le; 61.0<br/>gini = 0.074<br/>samples = 26<br/>value = [1, 25]<br/>class = u>, fillcolor="#399de5f5"] ;
103 -> 107 ;
108 [label=<gini = 0.0<br/>samples = 24<br/>value = [0, 24]<br/>class = u>, fillcolor="#399de5ff"] ;
107 -> 108 ;
109 [label=<citric acid &le; 0.285<br/>gini = 0.5<br/>samples = 2<br/>value = [1, 1]<br/>class = q>, fillcolor="#e5813900"] ;
107 -> 109 ;
110 [label=<gini = 0.0<br/>samples = 1<br/>value = [1, 0]<br/>class = q>, fillcolor="#e58139ff"] ;
109 -> 110 ;
111 [label=<gini = 0.0<br/>samples = 1<br/>value = [0, 1]<br/>class = u>, fillcolor="#399de5ff"] ;
109 -> 111 ;
112 [label=<gini = 0.0<br/>samples = 2<br/>value = [2, 0]<br/>class = q>, fillcolor="#e58139ff"] ;
96 -> 112 ;
113 [label=<chlorides &le; 0.08<br/>gini = 0.08<br/>samples = 96<br/>value = [4, 92]<br/>class = u>, fillcolor="#399de5f4"] ;
95 -> 113 ;
114 [label=<citric acid &le; 0.195<br/>gini = 0.061<br/>samples = 95<br/>value = [3, 92]<br/>class = u>, fillcolor="#399de5f7"] ;
113 -> 114 ;
115 [label=<alcohol &le; 9.2<br/>gini = 0.5<br/>samples = 2<br/>value = [1, 1]<br/>class = q>, fillcolor="#e5813900"] ;
114 -> 115 ;
116 [label=<gini = 0.0<br/>samples = 1<br/>value = [1, 0]<br/>class = q>, fillcolor="#e58139ff"] ;
115 -> 116 ;
117 [label=<gini = 0.0<br/>samples = 1<br/>value = [0, 1]<br/>class = u>, fillcolor="#399de5ff"] ;
115 -> 117 ;
118 [label=<citric acid &le; 0.46<br/>gini = 0.042<br/>samples = 93<br/>value = [2, 91]<br/>class = u>, fillcolor="#399de5f9"] ;
114 -> 118 ;
119 [label=<gini = 0.0<br/>samples = 84<br/>value = [0, 84]<br/>class = u>, fillcolor="#399de5ff"] ;
118 -> 119 ;
120 [label=<chlorides &le; 0.043<br/>gini = 0.346<br/>samples = 9<br/>value = [2, 7]<br/>class = u>, fillcolor="#399de5b6"] ;
118 -> 120 ;
121 [label=<gini = 0.0<br/>samples = 1<br/>value = [1, 0]<br/>class = q>, fillcolor="#e58139ff"] ;
120 -> 121 ;
122 [label=<citric acid &le; 0.475<br/>gini = 0.219<br/>samples = 8<br/>value = [1, 7]<br/>class = u>, fillcolor="#399de5db"] ;
120 -> 122 ;
123 [label=<gini = 0.0<br/>samples = 1<br/>value = [1, 0]<br/>class = q>, fillcolor="#e58139ff"] ;
122 -> 123 ;
124 [label=<gini = 0.0<br/>samples = 7<br/>value = [0, 7]<br/>class = u>, fillcolor="#399de5ff"] ;
122 -> 124 ;
125 [label=<gini = 0.0<br/>samples = 1<br/>value = [1, 0]<br/>class = q>, fillcolor="#e58139ff"] ;
113 -> 125 ;
126 [label=<sulphates &le; 0.785<br/>gini = 0.48<br/>samples = 15<br/>value = [6, 9]<br/>class = u>, fillcolor="#399de555"] ;
80 -> 126 ;
127 [label=<free sulfur dioxide &le; 47.5<br/>gini = 0.375<br/>samples = 8<br/>value = [6, 2]<br/>class = q>, fillcolor="#e58139aa"] ;
126 -> 127 ;
128 [label=<gini = 0.0<br/>samples = 2<br/>value = [0, 2]<br/>class = u>, fillcolor="#399de5ff"] ;
127 -> 128 ;
129 [label=<gini = 0.0<br/>samples = 6<br/>value = [6, 0]<br/>class = q>, fillcolor="#e58139ff"] ;
127 -> 129 ;
130 [label=<gini = 0.0<br/>samples = 7<br/>value = [0, 7]<br/>class = u>, fillcolor="#399de5ff"] ;
126 -> 130 ;
131 [label=<density &le; 0.995<br/>gini = 0.5<br/>samples = 10<br/>value = [5, 5]<br/>class = q>, fillcolor="#e5813900"] ;
79 -> 131 ;
132 [label=<gini = 0.0<br/>samples = 4<br/>value = [0, 4]<br/>class = u>, fillcolor="#399de5ff"] ;
131 -> 132 ;
133 [label=<residual sugar &le; 15.1<br/>gini = 0.278<br/>samples = 6<br/>value = [5, 1]<br/>class = q>, fillcolor="#e58139cc"] ;
131 -> 133 ;
134 [label=<gini = 0.0<br/>samples = 5<br/>value = [5, 0]<br/>class = q>, fillcolor="#e58139ff"] ;
133 -> 134 ;
135 [label=<gini = 0.0<br/>samples = 1<br/>value = [0, 1]<br/>class = u>, fillcolor="#399de5ff"] ;
133 -> 135 ;
136 [label=<total sulfur dioxide &le; 128.0<br/>gini = 0.038<br/>samples = 51<br/>value = [1, 50]<br/>class = u>, fillcolor="#399de5fa"] ;
78 -> 136 ;
137 [label=<pH &le; 3.21<br/>gini = 0.32<br/>samples = 5<br/>value = [1, 4]<br/>class = u>, fillcolor="#399de5bf"] ;
136 -> 137 ;
138 [label=<gini = 0.0<br/>samples = 4<br/>value = [0, 4]<br/>class = u>, fillcolor="#399de5ff"] ;
137 -> 138 ;
139 [label=<gini = 0.0<br/>samples = 1<br/>value = [1, 0]<br/>class = q>, fillcolor="#e58139ff"] ;
137 -> 139 ;
140 [label=<gini = 0.0<br/>samples = 46<br/>value = [0, 46]<br/>class = u>, fillcolor="#399de5ff"] ;
136 -> 140 ;
141 [label=<gini = 0.0<br/>samples = 2<br/>value = [2, 0]<br/>class = q>, fillcolor="#e58139ff"] ;
75 -> 141 ;
142 [label=<alcohol &le; 9.55<br/>gini = 0.498<br/>samples = 213<br/>value = [99, 114]<br/>class = u>, fillcolor="#399de522"] ;
2 -> 142 ;
143 [label=<pH &le; 3.075<br/>gini = 0.494<br/>samples = 143<br/>value = [79, 64]<br/>class = q>, fillcolor="#e5813930"] ;
142 -> 143 ;
144 [label=<citric acid &le; 0.545<br/>gini = 0.405<br/>samples = 46<br/>value = [13, 33]<br/>class = u>, fillcolor="#399de59b"] ;
143 -> 144 ;
145 [label=<citric acid &le; 0.275<br/>gini = 0.314<br/>samples = 41<br/>value = [8, 33]<br/>class = u>, fillcolor="#399de5c1"] ;
144 -> 145 ;
146 [label=<fixed acidity &le; 6.55<br/>gini = 0.408<br/>samples = 7<br/>value = [5, 2]<br/>class = q>, fillcolor="#e5813999"] ;
145 -> 146 ;
147 [label=<gini = 0.0<br/>samples = 2<br/>value = [0, 2]<br/>class = u>, fillcolor="#399de5ff"] ;
146 -> 147 ;
148 [label=<gini = 0.0<br/>samples = 5<br/>value = [5, 0]<br/>class = q>, fillcolor="#e58139ff"] ;
146 -> 148 ;
149 [label=<sulphates &le; 0.545<br/>gini = 0.161<br/>samples = 34<br/>value = [3, 31]<br/>class = u>, fillcolor="#399de5e6"] ;
145 -> 149 ;
150 [label=<residual sugar &le; 2.75<br/>gini = 0.114<br/>samples = 33<br/>value = [2, 31]<br/>class = u>, fillcolor="#399de5ef"] ;
149 -> 150 ;
151 [label=<gini = 0.0<br/>samples = 1<br/>value = [1, 0]<br/>class = q>, fillcolor="#e58139ff"] ;
150 -> 151 ;
152 [label=<citric acid &le; 0.365<br/>gini = 0.061<br/>samples = 32<br/>value = [1, 31]<br/>class = u>, fillcolor="#399de5f7"] ;
150 -> 152 ;
153 [label=<gini = 0.0<br/>samples = 25<br/>value = [0, 25]<br/>class = u>, fillcolor="#399de5ff"] ;
152 -> 153 ;
154 [label=<citric acid &le; 0.38<br/>gini = 0.245<br/>samples = 7<br/>value = [1, 6]<br/>class = u>, fillcolor="#399de5d4"] ;
152 -> 154 ;
155 [label=<gini = 0.0<br/>samples = 1<br/>value = [1, 0]<br/>class = q>, fillcolor="#e58139ff"] ;
154 -> 155 ;
156 [label=<gini = 0.0<br/>samples = 6<br/>value = [0, 6]<br/>class = u>, fillcolor="#399de5ff"] ;
154 -> 156 ;
157 [label=<gini = 0.0<br/>samples = 1<br/>value = [1, 0]<br/>class = q>, fillcolor="#e58139ff"] ;
149 -> 157 ;
158 [label=<gini = 0.0<br/>samples = 5<br/>value = [5, 0]<br/>class = q>, fillcolor="#e58139ff"] ;
144 -> 158 ;
159 [label=<free sulfur dioxide &le; 67.5<br/>gini = 0.435<br/>samples = 97<br/>value = [66, 31]<br/>class = q>, fillcolor="#e5813987"] ;
143 -> 159 ;
160 [label=<fixed acidity &le; 5.65<br/>gini = 0.412<br/>samples = 93<br/>value = [66, 27]<br/>class = q>, fillcolor="#e5813997"] ;
159 -> 160 ;
161 [label=<gini = 0.0<br/>samples = 2<br/>value = [0, 2]<br/>class = u>, fillcolor="#399de5ff"] ;
160 -> 161 ;
162 [label=<alcohol &le; 9.35<br/>gini = 0.399<br/>samples = 91<br/>value = [66, 25]<br/>class = q>, fillcolor="#e581399e"] ;
160 -> 162 ;
163 [label=<total sulfur dioxide &le; 140.5<br/>gini = 0.311<br/>samples = 52<br/>value = [42, 10]<br/>class = q>, fillcolor="#e58139c2"] ;
162 -> 163 ;
164 [label=<citric acid &le; 0.325<br/>gini = 0.444<br/>samples = 3<br/>value = [1, 2]<br/>class = u>, fillcolor="#399de57f"] ;
163 -> 164 ;
165 [label=<gini = 0.0<br/>samples = 1<br/>value = [1, 0]<br/>class = q>, fillcolor="#e58139ff"] ;
164 -> 165 ;
166 [label=<gini = 0.0<br/>samples = 2<br/>value = [0, 2]<br/>class = u>, fillcolor="#399de5ff"] ;
164 -> 166 ;
167 [label=<total sulfur dioxide &le; 196.5<br/>gini = 0.273<br/>samples = 49<br/>value = [41, 8]<br/>class = q>, fillcolor="#e58139cd"] ;
163 -> 167 ;
168 [label=<residual sugar &le; 7.95<br/>gini = 0.157<br/>samples = 35<br/>value = [32, 3]<br/>class = q>, fillcolor="#e58139e7"] ;
167 -> 168 ;
169 [label=<fixed acidity &le; 7.35<br/>gini = 0.337<br/>samples = 14<br/>value = [11, 3]<br/>class = q>, fillcolor="#e58139b9"] ;
168 -> 169 ;
170 [label=<fixed acidity &le; 5.9<br/>gini = 0.153<br/>samples = 12<br/>value = [11, 1]<br/>class = q>, fillcolor="#e58139e8"] ;
169 -> 170 ;
171 [label=<fixed acidity &le; 5.75<br/>gini = 0.5<br/>samples = 2<br/>value = [1, 1]<br/>class = q>, fillcolor="#e5813900"] ;
170 -> 171 ;
172 [label=<gini = 0.0<br/>samples = 1<br/>value = [1, 0]<br/>class = q>, fillcolor="#e58139ff"] ;
171 -> 172 ;
173 [label=<gini = 0.0<br/>samples = 1<br/>value = [0, 1]<br/>class = u>, fillcolor="#399de5ff"] ;
171 -> 173 ;
174 [label=<gini = 0.0<br/>samples = 10<br/>value = [10, 0]<br/>class = q>, fillcolor="#e58139ff"] ;
170 -> 174 ;
175 [label=<gini = 0.0<br/>samples = 2<br/>value = [0, 2]<br/>class = u>, fillcolor="#399de5ff"] ;
169 -> 175 ;
176 [label=<gini = 0.0<br/>samples = 21<br/>value = [21, 0]<br/>class = q>, fillcolor="#e58139ff"] ;
168 -> 176 ;
177 [label=<total sulfur dioxide &le; 206.5<br/>gini = 0.459<br/>samples = 14<br/>value = [9, 5]<br/>class = q>, fillcolor="#e5813971"] ;
167 -> 177 ;
178 [label=<gini = 0.0<br/>samples = 3<br/>value = [0, 3]<br/>class = u>, fillcolor="#399de5ff"] ;
177 -> 178 ;
179 [label=<citric acid &le; 0.645<br/>gini = 0.298<br/>samples = 11<br/>value = [9, 2]<br/>class = q>, fillcolor="#e58139c6"] ;
177 -> 179 ;
180 [label=<total sulfur dioxide &le; 251.0<br/>gini = 0.18<br/>samples = 10<br/>value = [9, 1]<br/>class = q>, fillcolor="#e58139e3"] ;
179 -> 180 ;
181 [label=<gini = 0.0<br/>samples = 9<br/>value = [9, 0]<br/>class = q>, fillcolor="#e58139ff"] ;
180 -> 181 ;
182 [label=<gini = 0.0<br/>samples = 1<br/>value = [0, 1]<br/>class = u>, fillcolor="#399de5ff"] ;
180 -> 182 ;
183 [label=<gini = 0.0<br/>samples = 1<br/>value = [0, 1]<br/>class = u>, fillcolor="#399de5ff"] ;
179 -> 183 ;
184 [label=<sulphates &le; 0.435<br/>gini = 0.473<br/>samples = 39<br/>value = [24, 15]<br/>class = q>, fillcolor="#e5813960"] ;
162 -> 184 ;
185 [label=<gini = 0.0<br/>samples = 6<br/>value = [6, 0]<br/>class = q>, fillcolor="#e58139ff"] ;
184 -> 185 ;
186 [label=<total sulfur dioxide &le; 159.5<br/>gini = 0.496<br/>samples = 33<br/>value = [18, 15]<br/>class = q>, fillcolor="#e581392a"] ;
184 -> 186 ;
187 [label=<citric acid &le; 0.24<br/>gini = 0.278<br/>samples = 6<br/>value = [1, 5]<br/>class = u>, fillcolor="#399de5cc"] ;
186 -> 187 ;
188 [label=<gini = 0.0<br/>samples = 1<br/>value = [1, 0]<br/>class = q>, fillcolor="#e58139ff"] ;
187 -> 188 ;
189 [label=<gini = 0.0<br/>samples = 5<br/>value = [0, 5]<br/>class = u>, fillcolor="#399de5ff"] ;
187 -> 189 ;
190 [label=<pH &le; 3.17<br/>gini = 0.466<br/>samples = 27<br/>value = [17, 10]<br/>class = q>, fillcolor="#e5813969"] ;
186 -> 190 ;
191 [label=<gini = 0.0<br/>samples = 2<br/>value = [0, 2]<br/>class = u>, fillcolor="#399de5ff"] ;
190 -> 191 ;
192 [label=<sulphates &le; 0.525<br/>gini = 0.435<br/>samples = 25<br/>value = [17, 8]<br/>class = q>, fillcolor="#e5813987"] ;
190 -> 192 ;
193 [label=<sulphates &le; 0.465<br/>gini = 0.305<br/>samples = 16<br/>value = [13, 3]<br/>class = q>, fillcolor="#e58139c4"] ;
192 -> 193 ;
194 [label=<fixed acidity &le; 6.45<br/>gini = 0.49<br/>samples = 7<br/>value = [4, 3]<br/>class = q>, fillcolor="#e5813940"] ;
193 -> 194 ;
195 [label=<residual sugar &le; 11.35<br/>gini = 0.32<br/>samples = 5<br/>value = [4, 1]<br/>class = q>, fillcolor="#e58139bf"] ;
194 -> 195 ;
196 [label=<gini = 0.0<br/>samples = 1<br/>value = [0, 1]<br/>class = u>, fillcolor="#399de5ff"] ;
195 -> 196 ;
197 [label=<gini = 0.0<br/>samples = 4<br/>value = [4, 0]<br/>class = q>, fillcolor="#e58139ff"] ;
195 -> 197 ;
198 [label=<gini = 0.0<br/>samples = 2<br/>value = [0, 2]<br/>class = u>, fillcolor="#399de5ff"] ;
194 -> 198 ;
199 [label=<gini = 0.0<br/>samples = 9<br/>value = [9, 0]<br/>class = q>, fillcolor="#e58139ff"] ;
193 -> 199 ;
200 [label=<sulphates &le; 0.545<br/>gini = 0.494<br/>samples = 9<br/>value = [4, 5]<br/>class = u>, fillcolor="#399de533"] ;
192 -> 200 ;
201 [label=<gini = 0.0<br/>samples = 4<br/>value = [0, 4]<br/>class = u>, fillcolor="#399de5ff"] ;
200 -> 201 ;
202 [label=<citric acid &le; 0.25<br/>gini = 0.32<br/>samples = 5<br/>value = [4, 1]<br/>class = q>, fillcolor="#e58139bf"] ;
200 -> 202 ;
203 [label=<gini = 0.0<br/>samples = 1<br/>value = [0, 1]<br/>class = u>, fillcolor="#399de5ff"] ;
202 -> 203 ;
204 [label=<gini = 0.0<br/>samples = 4<br/>value = [4, 0]<br/>class = q>, fillcolor="#e58139ff"] ;
202 -> 204 ;
205 [label=<gini = 0.0<br/>samples = 4<br/>value = [0, 4]<br/>class = u>, fillcolor="#399de5ff"] ;
159 -> 205 ;
206 [label=<sulphates &le; 0.485<br/>gini = 0.408<br/>samples = 70<br/>value = [20, 50]<br/>class = u>, fillcolor="#399de599"] ;
142 -> 206 ;
207 [label=<sulphates &le; 0.37<br/>gini = 0.498<br/>samples = 30<br/>value = [14, 16]<br/>class = u>, fillcolor="#399de520"] ;
206 -> 207 ;
208 [label=<gini = 0.0<br/>samples = 5<br/>value = [0, 5]<br/>class = u>, fillcolor="#399de5ff"] ;
207 -> 208 ;
209 [label=<fixed acidity &le; 6.95<br/>gini = 0.493<br/>samples = 25<br/>value = [14, 11]<br/>class = q>, fillcolor="#e5813937"] ;
207 -> 209 ;
210 [label=<density &le; 0.993<br/>gini = 0.48<br/>samples = 15<br/>value = [6, 9]<br/>class = u>, fillcolor="#399de555"] ;
209 -> 210 ;
211 [label=<gini = 0.0<br/>samples = 3<br/>value = [3, 0]<br/>class = q>, fillcolor="#e58139ff"] ;
210 -> 211 ;
212 [label=<total sulfur dioxide &le; 181.5<br/>gini = 0.375<br/>samples = 12<br/>value = [3, 9]<br/>class = u>, fillcolor="#399de5aa"] ;
210 -> 212 ;
213 [label=<gini = 0.0<br/>samples = 6<br/>value = [0, 6]<br/>class = u>, fillcolor="#399de5ff"] ;
212 -> 213 ;
214 [label=<chlorides &le; 0.047<br/>gini = 0.5<br/>samples = 6<br/>value = [3, 3]<br/>class = q>, fillcolor="#e5813900"] ;
212 -> 214 ;
215 [label=<gini = 0.0<br/>samples = 3<br/>value = [0, 3]<br/>class = u>, fillcolor="#399de5ff"] ;
214 -> 215 ;
216 [label=<gini = 0.0<br/>samples = 3<br/>value = [3, 0]<br/>class = q>, fillcolor="#e58139ff"] ;
214 -> 216 ;
217 [label=<density &le; 0.993<br/>gini = 0.32<br/>samples = 10<br/>value = [8, 2]<br/>class = q>, fillcolor="#e58139bf"] ;
209 -> 217 ;
218 [label=<gini = 0.0<br/>samples = 1<br/>value = [0, 1]<br/>class = u>, fillcolor="#399de5ff"] ;
217 -> 218 ;
219 [label=<alcohol &le; 9.65<br/>gini = 0.198<br/>samples = 9<br/>value = [8, 1]<br/>class = q>, fillcolor="#e58139df"] ;
217 -> 219 ;
220 [label=<fixed acidity &le; 7.5<br/>gini = 0.5<br/>samples = 2<br/>value = [1, 1]<br/>class = q>, fillcolor="#e5813900"] ;
219 -> 220 ;
221 [label=<gini = 0.0<br/>samples = 1<br/>value = [1, 0]<br/>class = q>, fillcolor="#e58139ff"] ;
220 -> 221 ;
222 [label=<gini = 0.0<br/>samples = 1<br/>value = [0, 1]<br/>class = u>, fillcolor="#399de5ff"] ;
220 -> 222 ;
223 [label=<gini = 0.0<br/>samples = 7<br/>value = [7, 0]<br/>class = q>, fillcolor="#e58139ff"] ;
219 -> 223 ;
224 [label=<total sulfur dioxide &le; 110.5<br/>gini = 0.255<br/>samples = 40<br/>value = [6, 34]<br/>class = u>, fillcolor="#399de5d2"] ;
206 -> 224 ;
225 [label=<pH &le; 2.915<br/>gini = 0.375<br/>samples = 4<br/>value = [3, 1]<br/>class = q>, fillcolor="#e58139aa"] ;
224 -> 225 ;
226 [label=<gini = 0.0<br/>samples = 1<br/>value = [0, 1]<br/>class = u>, fillcolor="#399de5ff"] ;
225 -> 226 ;
227 [label=<gini = 0.0<br/>samples = 3<br/>value = [3, 0]<br/>class = q>, fillcolor="#e58139ff"] ;
225 -> 227 ;
228 [label=<chlorides &le; 0.057<br/>gini = 0.153<br/>samples = 36<br/>value = [3, 33]<br/>class = u>, fillcolor="#399de5e8"] ;
224 -> 228 ;
229 [label=<free sulfur dioxide &le; 66.5<br/>gini = 0.059<br/>samples = 33<br/>value = [1, 32]<br/>class = u>, fillcolor="#399de5f7"] ;
228 -> 229 ;
230 [label=<gini = 0.0<br/>samples = 32<br/>value = [0, 32]<br/>class = u>, fillcolor="#399de5ff"] ;
229 -> 230 ;
231 [label=<gini = 0.0<br/>samples = 1<br/>value = [1, 0]<br/>class = q>, fillcolor="#e58139ff"] ;
229 -> 231 ;
232 [label=<citric acid &le; 0.405<br/>gini = 0.444<br/>samples = 3<br/>value = [2, 1]<br/>class = q>, fillcolor="#e581397f"] ;
228 -> 232 ;
233 [label=<gini = 0.0<br/>samples = 2<br/>value = [2, 0]<br/>class = q>, fillcolor="#e58139ff"] ;
232 -> 233 ;
234 [label=<gini = 0.0<br/>samples = 1<br/>value = [0, 1]<br/>class = u>, fillcolor="#399de5ff"] ;
232 -> 234 ;
235 [label=<volatile acidity &le; 0.303<br/>gini = 0.444<br/>samples = 650<br/>value = [434, 216]<br/>class = q>, fillcolor="#e5813980"] ;
1 -> 235 ;
236 [label=<fixed acidity &le; 6.95<br/>gini = 0.494<br/>samples = 227<br/>value = [126, 101]<br/>class = q>, fillcolor="#e5813933"] ;
235 -> 236 ;
237 [label=<total sulfur dioxide &le; 160.5<br/>gini = 0.465<br/>samples = 147<br/>value = [93, 54]<br/>class = q>, fillcolor="#e581396b"] ;
236 -> 237 ;
238 [label=<citric acid &le; 0.245<br/>gini = 0.496<br/>samples = 57<br/>value = [26, 31]<br/>class = u>, fillcolor="#399de529"] ;
237 -> 238 ;
239 [label=<residual sugar &le; 6.95<br/>gini = 0.403<br/>samples = 25<br/>value = [18, 7]<br/>class = q>, fillcolor="#e581399c"] ;
238 -> 239 ;
240 [label=<gini = 0.0<br/>samples = 12<br/>value = [12, 0]<br/>class = q>, fillcolor="#e58139ff"] ;
239 -> 240 ;
241 [label=<fixed acidity &le; 6.7<br/>gini = 0.497<br/>samples = 13<br/>value = [6, 7]<br/>class = u>, fillcolor="#399de524"] ;
239 -> 241 ;
242 [label=<density &le; 0.995<br/>gini = 0.346<br/>samples = 9<br/>value = [2, 7]<br/>class = u>, fillcolor="#399de5b6"] ;
241 -> 242 ;
243 [label=<gini = 0.0<br/>samples = 1<br/>value = [1, 0]<br/>class = q>, fillcolor="#e58139ff"] ;
242 -> 243 ;
244 [label=<fixed acidity &le; 6.3<br/>gini = 0.219<br/>samples = 8<br/>value = [1, 7]<br/>class = u>, fillcolor="#399de5db"] ;
242 -> 244 ;
245 [label=<gini = 0.0<br/>samples = 6<br/>value = [0, 6]<br/>class = u>, fillcolor="#399de5ff"] ;
244 -> 245 ;
246 [label=<fixed acidity &le; 6.5<br/>gini = 0.5<br/>samples = 2<br/>value = [1, 1]<br/>class = q>, fillcolor="#e5813900"] ;
244 -> 246 ;
247 [label=<gini = 0.0<br/>samples = 1<br/>value = [1, 0]<br/>class = q>, fillcolor="#e58139ff"] ;
246 -> 247 ;
248 [label=<gini = 0.0<br/>samples = 1<br/>value = [0, 1]<br/>class = u>, fillcolor="#399de5ff"] ;
246 -> 248 ;
249 [label=<gini = 0.0<br/>samples = 4<br/>value = [4, 0]<br/>class = q>, fillcolor="#e58139ff"] ;
241 -> 249 ;
250 [label=<free sulfur dioxide &le; 11.5<br/>gini = 0.375<br/>samples = 32<br/>value = [8, 24]<br/>class = u>, fillcolor="#399de5aa"] ;
238 -> 250 ;
251 [label=<gini = 0.0<br/>samples = 3<br/>value = [3, 0]<br/>class = q>, fillcolor="#e58139ff"] ;
250 -> 251 ;
252 [label=<alcohol &le; 8.8<br/>gini = 0.285<br/>samples = 29<br/>value = [5, 24]<br/>class = u>, fillcolor="#399de5ca"] ;
250 -> 252 ;
253 [label=<gini = 0.0<br/>samples = 1<br/>value = [1, 0]<br/>class = q>, fillcolor="#e58139ff"] ;
252 -> 253 ;
254 [label=<alcohol &le; 9.7<br/>gini = 0.245<br/>samples = 28<br/>value = [4, 24]<br/>class = u>, fillcolor="#399de5d4"] ;
252 -> 254 ;
255 [label=<gini = 0.0<br/>samples = 17<br/>value = [0, 17]<br/>class = u>, fillcolor="#399de5ff"] ;
254 -> 255 ;
256 [label=<pH &le; 3.27<br/>gini = 0.463<br/>samples = 11<br/>value = [4, 7]<br/>class = u>, fillcolor="#399de56d"] ;
254 -> 256 ;
257 [label=<fixed acidity &le; 6.65<br/>gini = 0.444<br/>samples = 6<br/>value = [4, 2]<br/>class = q>, fillcolor="#e581397f"] ;
256 -> 257 ;
258 [label=<gini = 0.0<br/>samples = 4<br/>value = [4, 0]<br/>class = q>, fillcolor="#e58139ff"] ;
257 -> 258 ;
259 [label=<gini = 0.0<br/>samples = 2<br/>value = [0, 2]<br/>class = u>, fillcolor="#399de5ff"] ;
257 -> 259 ;
260 [label=<gini = 0.0<br/>samples = 5<br/>value = [0, 5]<br/>class = u>, fillcolor="#399de5ff"] ;
256 -> 260 ;
261 [label=<chlorides &le; 0.033<br/>gini = 0.38<br/>samples = 90<br/>value = [67, 23]<br/>class = q>, fillcolor="#e58139a7"] ;
237 -> 261 ;
262 [label=<gini = 0.0<br/>samples = 2<br/>value = [0, 2]<br/>class = u>, fillcolor="#399de5ff"] ;
261 -> 262 ;
263 [label=<pH &le; 3.245<br/>gini = 0.363<br/>samples = 88<br/>value = [67, 21]<br/>class = q>, fillcolor="#e58139af"] ;
261 -> 263 ;
264 [label=<pH &le; 3.235<br/>gini = 0.41<br/>samples = 73<br/>value = [52, 21]<br/>class = q>, fillcolor="#e5813998"] ;
263 -> 264 ;
265 [label=<sulphates &le; 0.585<br/>gini = 0.375<br/>samples = 68<br/>value = [51, 17]<br/>class = q>, fillcolor="#e58139aa"] ;
264 -> 265 ;
266 [label=<pH &le; 3.175<br/>gini = 0.346<br/>samples = 63<br/>value = [49, 14]<br/>class = q>, fillcolor="#e58139b6"] ;
265 -> 266 ;
267 [label=<alcohol &le; 9.45<br/>gini = 0.426<br/>samples = 39<br/>value = [27, 12]<br/>class = q>, fillcolor="#e581398e"] ;
266 -> 267 ;
268 [label=<chlorides &le; 0.046<br/>gini = 0.342<br/>samples = 32<br/>value = [25, 7]<br/>class = q>, fillcolor="#e58139b8"] ;
267 -> 268 ;
269 [label=<citric acid &le; 0.41<br/>gini = 0.49<br/>samples = 7<br/>value = [3, 4]<br/>class = u>, fillcolor="#399de540"] ;
268 -> 269 ;
270 [label=<gini = 0.0<br/>samples = 3<br/>value = [0, 3]<br/>class = u>, fillcolor="#399de5ff"] ;
269 -> 270 ;
271 [label=<density &le; 0.995<br/>gini = 0.375<br/>samples = 4<br/>value = [3, 1]<br/>class = q>, fillcolor="#e58139aa"] ;
269 -> 271 ;
272 [label=<gini = 0.0<br/>samples = 1<br/>value = [0, 1]<br/>class = u>, fillcolor="#399de5ff"] ;
271 -> 272 ;
273 [label=<gini = 0.0<br/>samples = 3<br/>value = [3, 0]<br/>class = q>, fillcolor="#e58139ff"] ;
271 -> 273 ;
274 [label=<total sulfur dioxide &le; 165.0<br/>gini = 0.211<br/>samples = 25<br/>value = [22, 3]<br/>class = q>, fillcolor="#e58139dc"] ;
268 -> 274 ;
275 [label=<gini = 0.0<br/>samples = 1<br/>value = [0, 1]<br/>class = u>, fillcolor="#399de5ff"] ;
274 -> 275 ;
276 [label=<residual sugar &le; 8.55<br/>gini = 0.153<br/>samples = 24<br/>value = [22, 2]<br/>class = q>, fillcolor="#e58139e8"] ;
274 -> 276 ;
277 [label=<fixed acidity &le; 6.55<br/>gini = 0.346<br/>samples = 9<br/>value = [7, 2]<br/>class = q>, fillcolor="#e58139b6"] ;
276 -> 277 ;
278 [label=<gini = 0.0<br/>samples = 6<br/>value = [6, 0]<br/>class = q>, fillcolor="#e58139ff"] ;
277 -> 278 ;
279 [label=<density &le; 0.996<br/>gini = 0.444<br/>samples = 3<br/>value = [1, 2]<br/>class = u>, fillcolor="#399de57f"] ;
277 -> 279 ;
280 [label=<gini = 0.0<br/>samples = 1<br/>value = [1, 0]<br/>class = q>, fillcolor="#e58139ff"] ;
279 -> 280 ;
281 [label=<gini = 0.0<br/>samples = 2<br/>value = [0, 2]<br/>class = u>, fillcolor="#399de5ff"] ;
279 -> 281 ;
282 [label=<gini = 0.0<br/>samples = 15<br/>value = [15, 0]<br/>class = q>, fillcolor="#e58139ff"] ;
276 -> 282 ;
283 [label=<total sulfur dioxide &le; 173.0<br/>gini = 0.408<br/>samples = 7<br/>value = [2, 5]<br/>class = u>, fillcolor="#399de599"] ;
267 -> 283 ;
284 [label=<gini = 0.0<br/>samples = 2<br/>value = [2, 0]<br/>class = q>, fillcolor="#e58139ff"] ;
283 -> 284 ;
285 [label=<gini = 0.0<br/>samples = 5<br/>value = [0, 5]<br/>class = u>, fillcolor="#399de5ff"] ;
283 -> 285 ;
286 [label=<residual sugar &le; 11.75<br/>gini = 0.153<br/>samples = 24<br/>value = [22, 2]<br/>class = q>, fillcolor="#e58139e8"] ;
266 -> 286 ;
287 [label=<gini = 0.0<br/>samples = 22<br/>value = [22, 0]<br/>class = q>, fillcolor="#e58139ff"] ;
286 -> 287 ;
288 [label=<gini = 0.0<br/>samples = 2<br/>value = [0, 2]<br/>class = u>, fillcolor="#399de5ff"] ;
286 -> 288 ;
289 [label=<fixed acidity &le; 6.45<br/>gini = 0.48<br/>samples = 5<br/>value = [2, 3]<br/>class = u>, fillcolor="#399de555"] ;
265 -> 289 ;
290 [label=<gini = 0.0<br/>samples = 2<br/>value = [0, 2]<br/>class = u>, fillcolor="#399de5ff"] ;
289 -> 290 ;
291 [label=<volatile acidity &le; 0.285<br/>gini = 0.444<br/>samples = 3<br/>value = [2, 1]<br/>class = q>, fillcolor="#e581397f"] ;
289 -> 291 ;
292 [label=<gini = 0.0<br/>samples = 1<br/>value = [0, 1]<br/>class = u>, fillcolor="#399de5ff"] ;
291 -> 292 ;
293 [label=<gini = 0.0<br/>samples = 2<br/>value = [2, 0]<br/>class = q>, fillcolor="#e58139ff"] ;
291 -> 293 ;
294 [label=<sulphates &le; 0.41<br/>gini = 0.32<br/>samples = 5<br/>value = [1, 4]<br/>class = u>, fillcolor="#399de5bf"] ;
264 -> 294 ;
295 [label=<gini = 0.0<br/>samples = 1<br/>value = [1, 0]<br/>class = q>, fillcolor="#e58139ff"] ;
294 -> 295 ;
296 [label=<gini = 0.0<br/>samples = 4<br/>value = [0, 4]<br/>class = u>, fillcolor="#399de5ff"] ;
294 -> 296 ;
297 [label=<gini = 0.0<br/>samples = 15<br/>value = [15, 0]<br/>class = q>, fillcolor="#e58139ff"] ;
263 -> 297 ;
298 [label=<chlorides &le; 0.051<br/>gini = 0.485<br/>samples = 80<br/>value = [33, 47]<br/>class = u>, fillcolor="#399de54c"] ;
236 -> 298 ;
299 [label=<citric acid &le; 0.21<br/>gini = 0.423<br/>samples = 56<br/>value = [17, 39]<br/>class = u>, fillcolor="#399de590"] ;
298 -> 299 ;
300 [label=<gini = 0.0<br/>samples = 4<br/>value = [4, 0]<br/>class = q>, fillcolor="#e58139ff"] ;
299 -> 300 ;
301 [label=<fixed acidity &le; 7.65<br/>gini = 0.375<br/>samples = 52<br/>value = [13, 39]<br/>class = u>, fillcolor="#399de5aa"] ;
299 -> 301 ;
302 [label=<citric acid &le; 0.705<br/>gini = 0.213<br/>samples = 33<br/>value = [4, 29]<br/>class = u>, fillcolor="#399de5dc"] ;
301 -> 302 ;
303 [label=<total sulfur dioxide &le; 232.5<br/>gini = 0.121<br/>samples = 31<br/>value = [2, 29]<br/>class = u>, fillcolor="#399de5ed"] ;
302 -> 303 ;
304 [label=<total sulfur dioxide &le; 126.0<br/>gini = 0.064<br/>samples = 30<br/>value = [1, 29]<br/>class = u>, fillcolor="#399de5f6"] ;
303 -> 304 ;
305 [label=<total sulfur dioxide &le; 120.5<br/>gini = 0.32<br/>samples = 5<br/>value = [1, 4]<br/>class = u>, fillcolor="#399de5bf"] ;
304 -> 305 ;
306 [label=<gini = 0.0<br/>samples = 4<br/>value = [0, 4]<br/>class = u>, fillcolor="#399de5ff"] ;
305 -> 306 ;
307 [label=<gini = 0.0<br/>samples = 1<br/>value = [1, 0]<br/>class = q>, fillcolor="#e58139ff"] ;
305 -> 307 ;
308 [label=<gini = 0.0<br/>samples = 25<br/>value = [0, 25]<br/>class = u>, fillcolor="#399de5ff"] ;
304 -> 308 ;
309 [label=<gini = 0.0<br/>samples = 1<br/>value = [1, 0]<br/>class = q>, fillcolor="#e58139ff"] ;
303 -> 309 ;
310 [label=<gini = 0.0<br/>samples = 2<br/>value = [2, 0]<br/>class = q>, fillcolor="#e58139ff"] ;
302 -> 310 ;
311 [label=<fixed acidity &le; 7.75<br/>gini = 0.499<br/>samples = 19<br/>value = [9, 10]<br/>class = u>, fillcolor="#399de519"] ;
301 -> 311 ;
312 [label=<gini = 0.0<br/>samples = 5<br/>value = [5, 0]<br/>class = q>, fillcolor="#e58139ff"] ;
311 -> 312 ;
313 [label=<density &le; 0.997<br/>gini = 0.408<br/>samples = 14<br/>value = [4, 10]<br/>class = u>, fillcolor="#399de599"] ;
311 -> 313 ;
314 [label=<sulphates &le; 0.47<br/>gini = 0.444<br/>samples = 6<br/>value = [4, 2]<br/>class = q>, fillcolor="#e581397f"] ;
313 -> 314 ;
315 [label=<volatile acidity &le; 0.275<br/>gini = 0.444<br/>samples = 3<br/>value = [1, 2]<br/>class = u>, fillcolor="#399de57f"] ;
314 -> 315 ;
316 [label=<gini = 0.0<br/>samples = 1<br/>value = [1, 0]<br/>class = q>, fillcolor="#e58139ff"] ;
315 -> 316 ;
317 [label=<gini = 0.0<br/>samples = 2<br/>value = [0, 2]<br/>class = u>, fillcolor="#399de5ff"] ;
315 -> 317 ;
318 [label=<gini = 0.0<br/>samples = 3<br/>value = [3, 0]<br/>class = q>, fillcolor="#e58139ff"] ;
314 -> 318 ;
319 [label=<gini = 0.0<br/>samples = 8<br/>value = [0, 8]<br/>class = u>, fillcolor="#399de5ff"] ;
313 -> 319 ;
320 [label=<volatile acidity &le; 0.287<br/>gini = 0.444<br/>samples = 24<br/>value = [16, 8]<br/>class = q>, fillcolor="#e581397f"] ;
298 -> 320 ;
321 [label=<alcohol &le; 9.917<br/>gini = 0.219<br/>samples = 16<br/>value = [14, 2]<br/>class = q>, fillcolor="#e58139db"] ;
320 -> 321 ;
322 [label=<pH &le; 3.205<br/>gini = 0.124<br/>samples = 15<br/>value = [14, 1]<br/>class = q>, fillcolor="#e58139ed"] ;
321 -> 322 ;
323 [label=<gini = 0.0<br/>samples = 11<br/>value = [11, 0]<br/>class = q>, fillcolor="#e58139ff"] ;
322 -> 323 ;
324 [label=<fixed acidity &le; 7.85<br/>gini = 0.375<br/>samples = 4<br/>value = [3, 1]<br/>class = q>, fillcolor="#e58139aa"] ;
322 -> 324 ;
325 [label=<gini = 0.0<br/>samples = 3<br/>value = [3, 0]<br/>class = q>, fillcolor="#e58139ff"] ;
324 -> 325 ;
326 [label=<gini = 0.0<br/>samples = 1<br/>value = [0, 1]<br/>class = u>, fillcolor="#399de5ff"] ;
324 -> 326 ;
327 [label=<gini = 0.0<br/>samples = 1<br/>value = [0, 1]<br/>class = u>, fillcolor="#399de5ff"] ;
321 -> 327 ;
328 [label=<pH &le; 3.12<br/>gini = 0.375<br/>samples = 8<br/>value = [2, 6]<br/>class = u>, fillcolor="#399de5aa"] ;
320 -> 328 ;
329 [label=<density &le; 0.997<br/>gini = 0.444<br/>samples = 3<br/>value = [2, 1]<br/>class = q>, fillcolor="#e581397f"] ;
328 -> 329 ;
330 [label=<gini = 0.0<br/>samples = 2<br/>value = [2, 0]<br/>class = q>, fillcolor="#e58139ff"] ;
329 -> 330 ;
331 [label=<gini = 0.0<br/>samples = 1<br/>value = [0, 1]<br/>class = u>, fillcolor="#399de5ff"] ;
329 -> 331 ;
332 [label=<gini = 0.0<br/>samples = 5<br/>value = [0, 5]<br/>class = u>, fillcolor="#399de5ff"] ;
328 -> 332 ;
333 [label=<pH &le; 3.245<br/>gini = 0.396<br/>samples = 423<br/>value = [308, 115]<br/>class = q>, fillcolor="#e58139a0"] ;
235 -> 333 ;
334 [label=<density &le; 1.001<br/>gini = 0.347<br/>samples = 331<br/>value = [257, 74]<br/>class = q>, fillcolor="#e58139b6"] ;
333 -> 334 ;
335 [label=<total sulfur dioxide &le; 151.5<br/>gini = 0.336<br/>samples = 327<br/>value = [257, 70]<br/>class = q>, fillcolor="#e58139ba"] ;
334 -> 335 ;
336 [label=<free sulfur dioxide &le; 59.5<br/>gini = 0.213<br/>samples = 124<br/>value = [109, 15]<br/>class = q>, fillcolor="#e58139dc"] ;
335 -> 336 ;
337 [label=<density &le; 0.993<br/>gini = 0.202<br/>samples = 123<br/>value = [109, 14]<br/>class = q>, fillcolor="#e58139de"] ;
336 -> 337 ;
338 [label=<alcohol &le; 9.95<br/>gini = 0.375<br/>samples = 20<br/>value = [15, 5]<br/>class = q>, fillcolor="#e58139aa"] ;
337 -> 338 ;
339 [label=<total sulfur dioxide &le; 109.0<br/>gini = 0.496<br/>samples = 11<br/>value = [6, 5]<br/>class = q>, fillcolor="#e581392a"] ;
338 -> 339 ;
340 [label=<gini = 0.0<br/>samples = 5<br/>value = [5, 0]<br/>class = q>, fillcolor="#e58139ff"] ;
339 -> 340 ;
341 [label=<citric acid &le; 0.435<br/>gini = 0.278<br/>samples = 6<br/>value = [1, 5]<br/>class = u>, fillcolor="#399de5cc"] ;
339 -> 341 ;
342 [label=<gini = 0.0<br/>samples = 5<br/>value = [0, 5]<br/>class = u>, fillcolor="#399de5ff"] ;
341 -> 342 ;
343 [label=<gini = 0.0<br/>samples = 1<br/>value = [1, 0]<br/>class = q>, fillcolor="#e58139ff"] ;
341 -> 343 ;
344 [label=<gini = 0.0<br/>samples = 9<br/>value = [9, 0]<br/>class = q>, fillcolor="#e58139ff"] ;
338 -> 344 ;
345 [label=<alcohol &le; 10.05<br/>gini = 0.159<br/>samples = 103<br/>value = [94, 9]<br/>class = q>, fillcolor="#e58139e7"] ;
337 -> 345 ;
346 [label=<chlorides &le; 0.06<br/>gini = 0.145<br/>samples = 102<br/>value = [94, 8]<br/>class = q>, fillcolor="#e58139e9"] ;
345 -> 346 ;
347 [label=<sulphates &le; 0.64<br/>gini = 0.077<br/>samples = 75<br/>value = [72, 3]<br/>class = q>, fillcolor="#e58139f4"] ;
346 -> 347 ;
348 [label=<citric acid &le; 0.595<br/>gini = 0.053<br/>samples = 74<br/>value = [72, 2]<br/>class = q>, fillcolor="#e58139f8"] ;
347 -> 348 ;
349 [label=<chlorides &le; 0.033<br/>gini = 0.027<br/>samples = 73<br/>value = [72, 1]<br/>class = q>, fillcolor="#e58139fb"] ;
348 -> 349 ;
350 [label=<sulphates &le; 0.4<br/>gini = 0.444<br/>samples = 3<br/>value = [2, 1]<br/>class = q>, fillcolor="#e581397f"] ;
349 -> 350 ;
351 [label=<gini = 0.0<br/>samples = 2<br/>value = [2, 0]<br/>class = q>, fillcolor="#e58139ff"] ;
350 -> 351 ;
352 [label=<gini = 0.0<br/>samples = 1<br/>value = [0, 1]<br/>class = u>, fillcolor="#399de5ff"] ;
350 -> 352 ;
353 [label=<gini = 0.0<br/>samples = 70<br/>value = [70, 0]<br/>class = q>, fillcolor="#e58139ff"] ;
349 -> 353 ;
354 [label=<gini = 0.0<br/>samples = 1<br/>value = [0, 1]<br/>class = u>, fillcolor="#399de5ff"] ;
348 -> 354 ;
355 [label=<gini = 0.0<br/>samples = 1<br/>value = [0, 1]<br/>class = u>, fillcolor="#399de5ff"] ;
347 -> 355 ;
356 [label=<alcohol &le; 9.05<br/>gini = 0.302<br/>samples = 27<br/>value = [22, 5]<br/>class = q>, fillcolor="#e58139c5"] ;
346 -> 356 ;
357 [label=<alcohol &le; 8.9<br/>gini = 0.444<br/>samples = 6<br/>value = [2, 4]<br/>class = u>, fillcolor="#399de57f"] ;
356 -> 357 ;
358 [label=<gini = 0.0<br/>samples = 2<br/>value = [2, 0]<br/>class = q>, fillcolor="#e58139ff"] ;
357 -> 358 ;
359 [label=<gini = 0.0<br/>samples = 4<br/>value = [0, 4]<br/>class = u>, fillcolor="#399de5ff"] ;
357 -> 359 ;
360 [label=<fixed acidity &le; 6.05<br/>gini = 0.091<br/>samples = 21<br/>value = [20, 1]<br/>class = q>, fillcolor="#e58139f2"] ;
356 -> 360 ;
361 [label=<chlorides &le; 0.11<br/>gini = 0.5<br/>samples = 2<br/>value = [1, 1]<br/>class = q>, fillcolor="#e5813900"] ;
360 -> 361 ;
362 [label=<gini = 0.0<br/>samples = 1<br/>value = [0, 1]<br/>class = u>, fillcolor="#399de5ff"] ;
361 -> 362 ;
363 [label=<gini = 0.0<br/>samples = 1<br/>value = [1, 0]<br/>class = q>, fillcolor="#e58139ff"] ;
361 -> 363 ;
364 [label=<gini = 0.0<br/>samples = 19<br/>value = [19, 0]<br/>class = q>, fillcolor="#e58139ff"] ;
360 -> 364 ;
365 [label=<gini = 0.0<br/>samples = 1<br/>value = [0, 1]<br/>class = u>, fillcolor="#399de5ff"] ;
345 -> 365 ;
366 [label=<gini = 0.0<br/>samples = 1<br/>value = [0, 1]<br/>class = u>, fillcolor="#399de5ff"] ;
336 -> 366 ;
367 [label=<alcohol &le; 9.75<br/>gini = 0.395<br/>samples = 203<br/>value = [148, 55]<br/>class = q>, fillcolor="#e58139a0"] ;
335 -> 367 ;
368 [label=<citric acid &le; 0.415<br/>gini = 0.344<br/>samples = 172<br/>value = [134, 38]<br/>class = q>, fillcolor="#e58139b7"] ;
367 -> 368 ;
369 [label=<density &le; 0.997<br/>gini = 0.413<br/>samples = 103<br/>value = [73, 30]<br/>class = q>, fillcolor="#e5813996"] ;
368 -> 369 ;
370 [label=<density &le; 0.996<br/>gini = 0.477<br/>samples = 56<br/>value = [34, 22]<br/>class = q>, fillcolor="#e581395a"] ;
369 -> 370 ;
371 [label=<density &le; 0.996<br/>gini = 0.418<br/>samples = 47<br/>value = [33, 14]<br/>class = q>, fillcolor="#e5813993"] ;
370 -> 371 ;
372 [label=<total sulfur dioxide &le; 173.5<br/>gini = 0.484<br/>samples = 34<br/>value = [20, 14]<br/>class = q>, fillcolor="#e581394d"] ;
371 -> 372 ;
373 [label=<density &le; 0.995<br/>gini = 0.484<br/>samples = 17<br/>value = [7, 10]<br/>class = u>, fillcolor="#399de54d"] ;
372 -> 373 ;
374 [label=<alcohol &le; 9.575<br/>gini = 0.408<br/>samples = 14<br/>value = [4, 10]<br/>class = u>, fillcolor="#399de599"] ;
373 -> 374 ;
375 [label=<citric acid &le; 0.305<br/>gini = 0.278<br/>samples = 12<br/>value = [2, 10]<br/>class = u>, fillcolor="#399de5cc"] ;
374 -> 375 ;
376 [label=<volatile acidity &le; 0.355<br/>gini = 0.48<br/>samples = 5<br/>value = [2, 3]<br/>class = u>, fillcolor="#399de555"] ;
375 -> 376 ;
377 [label=<gini = 0.0<br/>samples = 2<br/>value = [2, 0]<br/>class = q>, fillcolor="#e58139ff"] ;
376 -> 377 ;
378 [label=<gini = 0.0<br/>samples = 3<br/>value = [0, 3]<br/>class = u>, fillcolor="#399de5ff"] ;
376 -> 378 ;
379 [label=<gini = 0.0<br/>samples = 7<br/>value = [0, 7]<br/>class = u>, fillcolor="#399de5ff"] ;
375 -> 379 ;
380 [label=<gini = 0.0<br/>samples = 2<br/>value = [2, 0]<br/>class = q>, fillcolor="#e58139ff"] ;
374 -> 380 ;
381 [label=<gini = 0.0<br/>samples = 3<br/>value = [3, 0]<br/>class = q>, fillcolor="#e58139ff"] ;
373 -> 381 ;
382 [label=<chlorides &le; 0.045<br/>gini = 0.36<br/>samples = 17<br/>value = [13, 4]<br/>class = q>, fillcolor="#e58139b1"] ;
372 -> 382 ;
383 [label=<fixed acidity &le; 6.35<br/>gini = 0.375<br/>samples = 4<br/>value = [1, 3]<br/>class = u>, fillcolor="#399de5aa"] ;
382 -> 383 ;
384 [label=<gini = 0.0<br/>samples = 1<br/>value = [1, 0]<br/>class = q>, fillcolor="#e58139ff"] ;
383 -> 384 ;
385 [label=<gini = 0.0<br/>samples = 3<br/>value = [0, 3]<br/>class = u>, fillcolor="#399de5ff"] ;
383 -> 385 ;
386 [label=<total sulfur dioxide &le; 214.0<br/>gini = 0.142<br/>samples = 13<br/>value = [12, 1]<br/>class = q>, fillcolor="#e58139ea"] ;
382 -> 386 ;
387 [label=<gini = 0.0<br/>samples = 12<br/>value = [12, 0]<br/>class = q>, fillcolor="#e58139ff"] ;
386 -> 387 ;
388 [label=<gini = 0.0<br/>samples = 1<br/>value = [0, 1]<br/>class = u>, fillcolor="#399de5ff"] ;
386 -> 388 ;
389 [label=<gini = 0.0<br/>samples = 13<br/>value = [13, 0]<br/>class = q>, fillcolor="#e58139ff"] ;
371 -> 389 ;
390 [label=<fixed acidity &le; 7.05<br/>gini = 0.198<br/>samples = 9<br/>value = [1, 8]<br/>class = u>, fillcolor="#399de5df"] ;
370 -> 390 ;
391 [label=<gini = 0.0<br/>samples = 1<br/>value = [1, 0]<br/>class = q>, fillcolor="#e58139ff"] ;
390 -> 391 ;
392 [label=<gini = 0.0<br/>samples = 8<br/>value = [0, 8]<br/>class = u>, fillcolor="#399de5ff"] ;
390 -> 392 ;
393 [label=<total sulfur dioxide &le; 242.0<br/>gini = 0.282<br/>samples = 47<br/>value = [39, 8]<br/>class = q>, fillcolor="#e58139cb"] ;
369 -> 393 ;
394 [label=<density &le; 0.999<br/>gini = 0.231<br/>samples = 45<br/>value = [39, 6]<br/>class = q>, fillcolor="#e58139d8"] ;
393 -> 394 ;
395 [label=<citric acid &le; 0.405<br/>gini = 0.142<br/>samples = 39<br/>value = [36, 3]<br/>class = q>, fillcolor="#e58139ea"] ;
394 -> 395 ;
396 [label=<pH &le; 3.01<br/>gini = 0.1<br/>samples = 38<br/>value = [36, 2]<br/>class = q>, fillcolor="#e58139f1"] ;
395 -> 396 ;
397 [label=<gini = 0.0<br/>samples = 1<br/>value = [0, 1]<br/>class = u>, fillcolor="#399de5ff"] ;
396 -> 397 ;
398 [label=<fixed acidity &le; 6.25<br/>gini = 0.053<br/>samples = 37<br/>value = [36, 1]<br/>class = q>, fillcolor="#e58139f8"] ;
396 -> 398 ;
399 [label=<chlorides &le; 0.056<br/>gini = 0.375<br/>samples = 4<br/>value = [3, 1]<br/>class = q>, fillcolor="#e58139aa"] ;
398 -> 399 ;
400 [label=<gini = 0.0<br/>samples = 3<br/>value = [3, 0]<br/>class = q>, fillcolor="#e58139ff"] ;
399 -> 400 ;
401 [label=<gini = 0.0<br/>samples = 1<br/>value = [0, 1]<br/>class = u>, fillcolor="#399de5ff"] ;
399 -> 401 ;
402 [label=<gini = 0.0<br/>samples = 33<br/>value = [33, 0]<br/>class = q>, fillcolor="#e58139ff"] ;
398 -> 402 ;
403 [label=<gini = 0.0<br/>samples = 1<br/>value = [0, 1]<br/>class = u>, fillcolor="#399de5ff"] ;
395 -> 403 ;
404 [label=<citric acid &le; 0.205<br/>gini = 0.5<br/>samples = 6<br/>value = [3, 3]<br/>class = q>, fillcolor="#e5813900"] ;
394 -> 404 ;
405 [label=<gini = 0.0<br/>samples = 2<br/>value = [0, 2]<br/>class = u>, fillcolor="#399de5ff"] ;
404 -> 405 ;
406 [label=<free sulfur dioxide &le; 30.5<br/>gini = 0.375<br/>samples = 4<br/>value = [3, 1]<br/>class = q>, fillcolor="#e58139aa"] ;
404 -> 406 ;
407 [label=<gini = 0.0<br/>samples = 1<br/>value = [0, 1]<br/>class = u>, fillcolor="#399de5ff"] ;
406 -> 407 ;
408 [label=<gini = 0.0<br/>samples = 3<br/>value = [3, 0]<br/>class = q>, fillcolor="#e58139ff"] ;
406 -> 408 ;
409 [label=<gini = 0.0<br/>samples = 2<br/>value = [0, 2]<br/>class = u>, fillcolor="#399de5ff"] ;
393 -> 409 ;
410 [label=<total sulfur dioxide &le; 157.5<br/>gini = 0.205<br/>samples = 69<br/>value = [61, 8]<br/>class = q>, fillcolor="#e58139de"] ;
368 -> 410 ;
411 [label=<chlorides &le; 0.045<br/>gini = 0.49<br/>samples = 7<br/>value = [3, 4]<br/>class = u>, fillcolor="#399de540"] ;
410 -> 411 ;
412 [label=<gini = 0.0<br/>samples = 4<br/>value = [0, 4]<br/>class = u>, fillcolor="#399de5ff"] ;
411 -> 412 ;
413 [label=<gini = 0.0<br/>samples = 3<br/>value = [3, 0]<br/>class = q>, fillcolor="#e58139ff"] ;
411 -> 413 ;
414 [label=<alcohol &le; 8.55<br/>gini = 0.121<br/>samples = 62<br/>value = [58, 4]<br/>class = q>, fillcolor="#e58139ed"] ;
410 -> 414 ;
415 [label=<gini = 0.0<br/>samples = 1<br/>value = [0, 1]<br/>class = u>, fillcolor="#399de5ff"] ;
414 -> 415 ;
416 [label=<fixed acidity &le; 6.5<br/>gini = 0.094<br/>samples = 61<br/>value = [58, 3]<br/>class = q>, fillcolor="#e58139f2"] ;
414 -> 416 ;
417 [label=<density &le; 0.997<br/>gini = 0.26<br/>samples = 13<br/>value = [11, 2]<br/>class = q>, fillcolor="#e58139d1"] ;
416 -> 417 ;
418 [label=<alcohol &le; 9.65<br/>gini = 0.153<br/>samples = 12<br/>value = [11, 1]<br/>class = q>, fillcolor="#e58139e8"] ;
417 -> 418 ;
419 [label=<gini = 0.0<br/>samples = 9<br/>value = [9, 0]<br/>class = q>, fillcolor="#e58139ff"] ;
418 -> 419 ;
420 [label=<volatile acidity &le; 0.39<br/>gini = 0.444<br/>samples = 3<br/>value = [2, 1]<br/>class = q>, fillcolor="#e581397f"] ;
418 -> 420 ;
421 [label=<gini = 0.0<br/>samples = 2<br/>value = [2, 0]<br/>class = q>, fillcolor="#e58139ff"] ;
420 -> 421 ;
422 [label=<gini = 0.0<br/>samples = 1<br/>value = [0, 1]<br/>class = u>, fillcolor="#399de5ff"] ;
420 -> 422 ;
423 [label=<gini = 0.0<br/>samples = 1<br/>value = [0, 1]<br/>class = u>, fillcolor="#399de5ff"] ;
417 -> 423 ;
424 [label=<chlorides &le; 0.043<br/>gini = 0.041<br/>samples = 48<br/>value = [47, 1]<br/>class = q>, fillcolor="#e58139fa"] ;
416 -> 424 ;
425 [label=<free sulfur dioxide &le; 57.5<br/>gini = 0.165<br/>samples = 11<br/>value = [10, 1]<br/>class = q>, fillcolor="#e58139e6"] ;
424 -> 425 ;
426 [label=<pH &le; 3.035<br/>gini = 0.5<br/>samples = 2<br/>value = [1, 1]<br/>class = q>, fillcolor="#e5813900"] ;
425 -> 426 ;
427 [label=<gini = 0.0<br/>samples = 1<br/>value = [1, 0]<br/>class = q>, fillcolor="#e58139ff"] ;
426 -> 427 ;
428 [label=<gini = 0.0<br/>samples = 1<br/>value = [0, 1]<br/>class = u>, fillcolor="#399de5ff"] ;
426 -> 428 ;
429 [label=<gini = 0.0<br/>samples = 9<br/>value = [9, 0]<br/>class = q>, fillcolor="#e58139ff"] ;
425 -> 429 ;
430 [label=<gini = 0.0<br/>samples = 37<br/>value = [37, 0]<br/>class = q>, fillcolor="#e58139ff"] ;
424 -> 430 ;
431 [label=<residual sugar &le; 6.75<br/>gini = 0.495<br/>samples = 31<br/>value = [14, 17]<br/>class = u>, fillcolor="#399de52d"] ;
367 -> 431 ;
432 [label=<density &le; 0.993<br/>gini = 0.391<br/>samples = 15<br/>value = [11, 4]<br/>class = q>, fillcolor="#e58139a2"] ;
431 -> 432 ;
433 [label=<gini = 0.0<br/>samples = 3<br/>value = [0, 3]<br/>class = u>, fillcolor="#399de5ff"] ;
432 -> 433 ;
434 [label=<free sulfur dioxide &le; 51.0<br/>gini = 0.153<br/>samples = 12<br/>value = [11, 1]<br/>class = q>, fillcolor="#e58139e8"] ;
432 -> 434 ;
435 [label=<gini = 0.0<br/>samples = 11<br/>value = [11, 0]<br/>class = q>, fillcolor="#e58139ff"] ;
434 -> 435 ;
436 [label=<gini = 0.0<br/>samples = 1<br/>value = [0, 1]<br/>class = u>, fillcolor="#399de5ff"] ;
434 -> 436 ;
437 [label=<pH &le; 3.215<br/>gini = 0.305<br/>samples = 16<br/>value = [3, 13]<br/>class = u>, fillcolor="#399de5c4"] ;
431 -> 437 ;
438 [label=<fixed acidity &le; 6.4<br/>gini = 0.133<br/>samples = 14<br/>value = [1, 13]<br/>class = u>, fillcolor="#399de5eb"] ;
437 -> 438 ;
439 [label=<gini = 0.0<br/>samples = 1<br/>value = [1, 0]<br/>class = q>, fillcolor="#e58139ff"] ;
438 -> 439 ;
440 [label=<gini = 0.0<br/>samples = 13<br/>value = [0, 13]<br/>class = u>, fillcolor="#399de5ff"] ;
438 -> 440 ;
441 [label=<gini = 0.0<br/>samples = 2<br/>value = [2, 0]<br/>class = q>, fillcolor="#e58139ff"] ;
437 -> 441 ;
442 [label=<gini = 0.0<br/>samples = 4<br/>value = [0, 4]<br/>class = u>, fillcolor="#399de5ff"] ;
334 -> 442 ;
443 [label=<residual sugar &le; 6.65<br/>gini = 0.494<br/>samples = 92<br/>value = [51, 41]<br/>class = q>, fillcolor="#e5813932"] ;
333 -> 443 ;
444 [label=<volatile acidity &le; 0.345<br/>gini = 0.291<br/>samples = 34<br/>value = [28, 6]<br/>class = q>, fillcolor="#e58139c8"] ;
443 -> 444 ;
445 [label=<sulphates &le; 0.545<br/>gini = 0.5<br/>samples = 10<br/>value = [5, 5]<br/>class = q>, fillcolor="#e5813900"] ;
444 -> 445 ;
446 [label=<gini = 0.0<br/>samples = 3<br/>value = [0, 3]<br/>class = u>, fillcolor="#399de5ff"] ;
445 -> 446 ;
447 [label=<fixed acidity &le; 5.25<br/>gini = 0.408<br/>samples = 7<br/>value = [5, 2]<br/>class = q>, fillcolor="#e5813999"] ;
445 -> 447 ;
448 [label=<chlorides &le; 0.033<br/>gini = 0.444<br/>samples = 3<br/>value = [1, 2]<br/>class = u>, fillcolor="#399de57f"] ;
447 -> 448 ;
449 [label=<gini = 0.0<br/>samples = 1<br/>value = [1, 0]<br/>class = q>, fillcolor="#e58139ff"] ;
448 -> 449 ;
450 [label=<gini = 0.0<br/>samples = 2<br/>value = [0, 2]<br/>class = u>, fillcolor="#399de5ff"] ;
448 -> 450 ;
451 [label=<gini = 0.0<br/>samples = 4<br/>value = [4, 0]<br/>class = q>, fillcolor="#e58139ff"] ;
447 -> 451 ;
452 [label=<density &le; 0.993<br/>gini = 0.08<br/>samples = 24<br/>value = [23, 1]<br/>class = q>, fillcolor="#e58139f4"] ;
444 -> 452 ;
453 [label=<gini = 0.0<br/>samples = 1<br/>value = [0, 1]<br/>class = u>, fillcolor="#399de5ff"] ;
452 -> 453 ;
454 [label=<gini = 0.0<br/>samples = 23<br/>value = [23, 0]<br/>class = q>, fillcolor="#e58139ff"] ;
452 -> 454 ;
455 [label=<volatile acidity &le; 0.315<br/>gini = 0.479<br/>samples = 58<br/>value = [23, 35]<br/>class = u>, fillcolor="#399de557"] ;
443 -> 455 ;
456 [label=<gini = 0.0<br/>samples = 5<br/>value = [5, 0]<br/>class = q>, fillcolor="#e58139ff"] ;
455 -> 456 ;
457 [label=<volatile acidity &le; 0.375<br/>gini = 0.449<br/>samples = 53<br/>value = [18, 35]<br/>class = u>, fillcolor="#399de57c"] ;
455 -> 457 ;
458 [label=<sulphates &le; 0.64<br/>gini = 0.159<br/>samples = 23<br/>value = [2, 21]<br/>class = u>, fillcolor="#399de5e7"] ;
457 -> 458 ;
459 [label=<citric acid &le; 0.145<br/>gini = 0.087<br/>samples = 22<br/>value = [1, 21]<br/>class = u>, fillcolor="#399de5f3"] ;
458 -> 459 ;
460 [label=<free sulfur dioxide &le; 37.5<br/>gini = 0.5<br/>samples = 2<br/>value = [1, 1]<br/>class = q>, fillcolor="#e5813900"] ;
459 -> 460 ;
461 [label=<gini = 0.0<br/>samples = 1<br/>value = [0, 1]<br/>class = u>, fillcolor="#399de5ff"] ;
460 -> 461 ;
462 [label=<gini = 0.0<br/>samples = 1<br/>value = [1, 0]<br/>class = q>, fillcolor="#e58139ff"] ;
460 -> 462 ;
463 [label=<gini = 0.0<br/>samples = 20<br/>value = [0, 20]<br/>class = u>, fillcolor="#399de5ff"] ;
459 -> 463 ;
464 [label=<gini = 0.0<br/>samples = 1<br/>value = [1, 0]<br/>class = q>, fillcolor="#e58139ff"] ;
458 -> 464 ;
465 [label=<pH &le; 3.265<br/>gini = 0.498<br/>samples = 30<br/>value = [16, 14]<br/>class = q>, fillcolor="#e5813920"] ;
457 -> 465 ;
466 [label=<gini = 0.0<br/>samples = 5<br/>value = [0, 5]<br/>class = u>, fillcolor="#399de5ff"] ;
465 -> 466 ;
467 [label=<alcohol &le; 9.35<br/>gini = 0.461<br/>samples = 25<br/>value = [16, 9]<br/>class = q>, fillcolor="#e5813970"] ;
465 -> 467 ;
468 [label=<gini = 0.0<br/>samples = 9<br/>value = [9, 0]<br/>class = q>, fillcolor="#e58139ff"] ;
467 -> 468 ;
469 [label=<fixed acidity &le; 6.75<br/>gini = 0.492<br/>samples = 16<br/>value = [7, 9]<br/>class = u>, fillcolor="#399de539"] ;
467 -> 469 ;
470 [label=<residual sugar &le; 12.35<br/>gini = 0.463<br/>samples = 11<br/>value = [7, 4]<br/>class = q>, fillcolor="#e581396d"] ;
469 -> 470 ;
471 [label=<pH &le; 3.305<br/>gini = 0.346<br/>samples = 9<br/>value = [7, 2]<br/>class = q>, fillcolor="#e58139b6"] ;
470 -> 471 ;
472 [label=<gini = 0.0<br/>samples = 1<br/>value = [0, 1]<br/>class = u>, fillcolor="#399de5ff"] ;
471 -> 472 ;
473 [label=<volatile acidity &le; 0.582<br/>gini = 0.219<br/>samples = 8<br/>value = [7, 1]<br/>class = q>, fillcolor="#e58139db"] ;
471 -> 473 ;
474 [label=<gini = 0.0<br/>samples = 7<br/>value = [7, 0]<br/>class = q>, fillcolor="#e58139ff"] ;
473 -> 474 ;
475 [label=<gini = 0.0<br/>samples = 1<br/>value = [0, 1]<br/>class = u>, fillcolor="#399de5ff"] ;
473 -> 475 ;
476 [label=<gini = 0.0<br/>samples = 2<br/>value = [0, 2]<br/>class = u>, fillcolor="#399de5ff"] ;
470 -> 476 ;
477 [label=<gini = 0.0<br/>samples = 5<br/>value = [0, 5]<br/>class = u>, fillcolor="#399de5ff"] ;
469 -> 477 ;
478 [label=<free sulfur dioxide &le; 11.5<br/>gini = 0.293<br/>samples = 1634<br/>value = [291, 1343]<br/>class = u>, fillcolor="#399de5c8"] ;
0 -> 478 [labeldistance=2.5, labelangle=-45, headlabel="False"] ;
479 [label=<alcohol &le; 11.75<br/>gini = 0.483<br/>samples = 110<br/>value = [65, 45]<br/>class = q>, fillcolor="#e581394e"] ;
478 -> 479 ;
480 [label=<residual sugar &le; 1.475<br/>gini = 0.408<br/>samples = 77<br/>value = [55, 22]<br/>class = q>, fillcolor="#e5813999"] ;
479 -> 480 ;
481 [label=<chlorides &le; 0.05<br/>gini = 0.239<br/>samples = 36<br/>value = [31, 5]<br/>class = q>, fillcolor="#e58139d6"] ;
480 -> 481 ;
482 [label=<volatile acidity &le; 0.185<br/>gini = 0.161<br/>samples = 34<br/>value = [31, 3]<br/>class = q>, fillcolor="#e58139e6"] ;
481 -> 482 ;
483 [label=<free sulfur dioxide &le; 8.0<br/>gini = 0.444<br/>samples = 3<br/>value = [1, 2]<br/>class = u>, fillcolor="#399de57f"] ;
482 -> 483 ;
484 [label=<gini = 0.0<br/>samples = 1<br/>value = [1, 0]<br/>class = q>, fillcolor="#e58139ff"] ;
483 -> 484 ;
485 [label=<gini = 0.0<br/>samples = 2<br/>value = [0, 2]<br/>class = u>, fillcolor="#399de5ff"] ;
483 -> 485 ;
486 [label=<volatile acidity &le; 0.495<br/>gini = 0.062<br/>samples = 31<br/>value = [30, 1]<br/>class = q>, fillcolor="#e58139f6"] ;
482 -> 486 ;
487 [label=<gini = 0.0<br/>samples = 29<br/>value = [29, 0]<br/>class = q>, fillcolor="#e58139ff"] ;
486 -> 487 ;
488 [label=<total sulfur dioxide &le; 83.0<br/>gini = 0.5<br/>samples = 2<br/>value = [1, 1]<br/>class = q>, fillcolor="#e5813900"] ;
486 -> 488 ;
489 [label=<gini = 0.0<br/>samples = 1<br/>value = [1, 0]<br/>class = q>, fillcolor="#e58139ff"] ;
488 -> 489 ;
490 [label=<gini = 0.0<br/>samples = 1<br/>value = [0, 1]<br/>class = u>, fillcolor="#399de5ff"] ;
488 -> 490 ;
491 [label=<gini = 0.0<br/>samples = 2<br/>value = [0, 2]<br/>class = u>, fillcolor="#399de5ff"] ;
481 -> 491 ;
492 [label=<density &le; 0.992<br/>gini = 0.485<br/>samples = 41<br/>value = [24, 17]<br/>class = q>, fillcolor="#e581394a"] ;
480 -> 492 ;
493 [label=<free sulfur dioxide &le; 6.0<br/>gini = 0.165<br/>samples = 11<br/>value = [1, 10]<br/>class = u>, fillcolor="#399de5e6"] ;
492 -> 493 ;
494 [label=<gini = 0.0<br/>samples = 1<br/>value = [1, 0]<br/>class = q>, fillcolor="#e58139ff"] ;
493 -> 494 ;
495 [label=<gini = 0.0<br/>samples = 10<br/>value = [0, 10]<br/>class = u>, fillcolor="#399de5ff"] ;
493 -> 495 ;
496 [label=<sulphates &le; 0.425<br/>gini = 0.358<br/>samples = 30<br/>value = [23, 7]<br/>class = q>, fillcolor="#e58139b1"] ;
492 -> 496 ;
497 [label=<residual sugar &le; 6.15<br/>gini = 0.494<br/>samples = 9<br/>value = [4, 5]<br/>class = u>, fillcolor="#399de533"] ;
496 -> 497 ;
498 [label=<gini = 0.0<br/>samples = 3<br/>value = [0, 3]<br/>class = u>, fillcolor="#399de5ff"] ;
497 -> 498 ;
499 [label=<free sulfur dioxide &le; 6.5<br/>gini = 0.444<br/>samples = 6<br/>value = [4, 2]<br/>class = q>, fillcolor="#e581397f"] ;
497 -> 499 ;
500 [label=<gini = 0.0<br/>samples = 2<br/>value = [0, 2]<br/>class = u>, fillcolor="#399de5ff"] ;
499 -> 500 ;
501 [label=<gini = 0.0<br/>samples = 4<br/>value = [4, 0]<br/>class = q>, fillcolor="#e58139ff"] ;
499 -> 501 ;
502 [label=<free sulfur dioxide &le; 7.5<br/>gini = 0.172<br/>samples = 21<br/>value = [19, 2]<br/>class = q>, fillcolor="#e58139e4"] ;
496 -> 502 ;
503 [label=<alcohol &le; 11.05<br/>gini = 0.444<br/>samples = 6<br/>value = [4, 2]<br/>class = q>, fillcolor="#e581397f"] ;
502 -> 503 ;
504 [label=<gini = 0.0<br/>samples = 3<br/>value = [3, 0]<br/>class = q>, fillcolor="#e58139ff"] ;
503 -> 504 ;
505 [label=<chlorides &le; 0.05<br/>gini = 0.444<br/>samples = 3<br/>value = [1, 2]<br/>class = u>, fillcolor="#399de57f"] ;
503 -> 505 ;
506 [label=<gini = 0.0<br/>samples = 2<br/>value = [0, 2]<br/>class = u>, fillcolor="#399de5ff"] ;
505 -> 506 ;
507 [label=<gini = 0.0<br/>samples = 1<br/>value = [1, 0]<br/>class = q>, fillcolor="#e58139ff"] ;
505 -> 507 ;
508 [label=<gini = 0.0<br/>samples = 15<br/>value = [15, 0]<br/>class = q>, fillcolor="#e58139ff"] ;
502 -> 508 ;
509 [label=<pH &le; 3.295<br/>gini = 0.422<br/>samples = 33<br/>value = [10, 23]<br/>class = u>, fillcolor="#399de590"] ;
479 -> 509 ;
510 [label=<free sulfur dioxide &le; 3.5<br/>gini = 0.269<br/>samples = 25<br/>value = [4, 21]<br/>class = u>, fillcolor="#399de5ce"] ;
509 -> 510 ;
511 [label=<density &le; 0.993<br/>gini = 0.444<br/>samples = 3<br/>value = [2, 1]<br/>class = q>, fillcolor="#e581397f"] ;
510 -> 511 ;
512 [label=<gini = 0.0<br/>samples = 2<br/>value = [2, 0]<br/>class = q>, fillcolor="#e58139ff"] ;
511 -> 512 ;
513 [label=<gini = 0.0<br/>samples = 1<br/>value = [0, 1]<br/>class = u>, fillcolor="#399de5ff"] ;
511 -> 513 ;
514 [label=<density &le; 0.994<br/>gini = 0.165<br/>samples = 22<br/>value = [2, 20]<br/>class = u>, fillcolor="#399de5e6"] ;
510 -> 514 ;
515 [label=<alcohol &le; 11.85<br/>gini = 0.091<br/>samples = 21<br/>value = [1, 20]<br/>class = u>, fillcolor="#399de5f2"] ;
514 -> 515 ;
516 [label=<gini = 0.0<br/>samples = 1<br/>value = [1, 0]<br/>class = q>, fillcolor="#e58139ff"] ;
515 -> 516 ;
517 [label=<gini = 0.0<br/>samples = 20<br/>value = [0, 20]<br/>class = u>, fillcolor="#399de5ff"] ;
515 -> 517 ;
518 [label=<gini = 0.0<br/>samples = 1<br/>value = [1, 0]<br/>class = q>, fillcolor="#e58139ff"] ;
514 -> 518 ;
519 [label=<density &le; 0.99<br/>gini = 0.375<br/>samples = 8<br/>value = [6, 2]<br/>class = q>, fillcolor="#e58139aa"] ;
509 -> 519 ;
520 [label=<gini = 0.0<br/>samples = 2<br/>value = [0, 2]<br/>class = u>, fillcolor="#399de5ff"] ;
519 -> 520 ;
521 [label=<gini = 0.0<br/>samples = 6<br/>value = [6, 0]<br/>class = q>, fillcolor="#e58139ff"] ;
519 -> 521 ;
522 [label=<alcohol &le; 10.99<br/>gini = 0.253<br/>samples = 1524<br/>value = [226, 1298]<br/>class = u>, fillcolor="#399de5d3"] ;
478 -> 522 ;
523 [label=<volatile acidity &le; 0.273<br/>gini = 0.393<br/>samples = 535<br/>value = [144, 391]<br/>class = u>, fillcolor="#399de5a1"] ;
522 -> 523 ;
524 [label=<sulphates &le; 0.525<br/>gini = 0.301<br/>samples = 363<br/>value = [67, 296]<br/>class = u>, fillcolor="#399de5c5"] ;
523 -> 524 ;
525 [label=<residual sugar &le; 15.35<br/>gini = 0.368<br/>samples = 218<br/>value = [53, 165]<br/>class = u>, fillcolor="#399de5ad"] ;
524 -> 525 ;
526 [label=<pH &le; 2.98<br/>gini = 0.357<br/>samples = 215<br/>value = [50, 165]<br/>class = u>, fillcolor="#399de5b2"] ;
525 -> 526 ;
527 [label=<volatile acidity &le; 0.195<br/>gini = 0.444<br/>samples = 9<br/>value = [6, 3]<br/>class = q>, fillcolor="#e581397f"] ;
526 -> 527 ;
528 [label=<gini = 0.0<br/>samples = 3<br/>value = [0, 3]<br/>class = u>, fillcolor="#399de5ff"] ;
527 -> 528 ;
529 [label=<gini = 0.0<br/>samples = 6<br/>value = [6, 0]<br/>class = q>, fillcolor="#e58139ff"] ;
527 -> 529 ;
530 [label=<citric acid &le; 0.285<br/>gini = 0.336<br/>samples = 206<br/>value = [44, 162]<br/>class = u>, fillcolor="#399de5ba"] ;
526 -> 530 ;
531 [label=<volatile acidity &le; 0.245<br/>gini = 0.188<br/>samples = 57<br/>value = [6, 51]<br/>class = u>, fillcolor="#399de5e1"] ;
530 -> 531 ;
532 [label=<sulphates &le; 0.345<br/>gini = 0.048<br/>samples = 41<br/>value = [1, 40]<br/>class = u>, fillcolor="#399de5f9"] ;
531 -> 532 ;
533 [label=<gini = 0.0<br/>samples = 1<br/>value = [1, 0]<br/>class = q>, fillcolor="#e58139ff"] ;
532 -> 533 ;
534 [label=<gini = 0.0<br/>samples = 40<br/>value = [0, 40]<br/>class = u>, fillcolor="#399de5ff"] ;
532 -> 534 ;
535 [label=<total sulfur dioxide &le; 105.0<br/>gini = 0.43<br/>samples = 16<br/>value = [5, 11]<br/>class = u>, fillcolor="#399de58b"] ;
531 -> 535 ;
536 [label=<gini = 0.0<br/>samples = 2<br/>value = [2, 0]<br/>class = q>, fillcolor="#e58139ff"] ;
535 -> 536 ;
537 [label=<fixed acidity &le; 6.25<br/>gini = 0.337<br/>samples = 14<br/>value = [3, 11]<br/>class = u>, fillcolor="#399de5b9"] ;
535 -> 537 ;
538 [label=<gini = 0.0<br/>samples = 8<br/>value = [0, 8]<br/>class = u>, fillcolor="#399de5ff"] ;
537 -> 538 ;
539 [label=<sulphates &le; 0.49<br/>gini = 0.5<br/>samples = 6<br/>value = [3, 3]<br/>class = q>, fillcolor="#e5813900"] ;
537 -> 539 ;
540 [label=<gini = 0.0<br/>samples = 3<br/>value = [3, 0]<br/>class = q>, fillcolor="#e58139ff"] ;
539 -> 540 ;
541 [label=<gini = 0.0<br/>samples = 3<br/>value = [0, 3]<br/>class = u>, fillcolor="#399de5ff"] ;
539 -> 541 ;
542 [label=<total sulfur dioxide &le; 153.5<br/>gini = 0.38<br/>samples = 149<br/>value = [38, 111]<br/>class = u>, fillcolor="#399de5a8"] ;
530 -> 542 ;
543 [label=<total sulfur dioxide &le; 148.5<br/>gini = 0.422<br/>samples = 119<br/>value = [36, 83]<br/>class = u>, fillcolor="#399de590"] ;
542 -> 543 ;
544 [label=<volatile acidity &le; 0.175<br/>gini = 0.398<br/>samples = 113<br/>value = [31, 82]<br/>class = u>, fillcolor="#399de59f"] ;
543 -> 544 ;
545 [label=<free sulfur dioxide &le; 24.5<br/>gini = 0.208<br/>samples = 34<br/>value = [4, 30]<br/>class = u>, fillcolor="#399de5dd"] ;
544 -> 545 ;
546 [label=<free sulfur dioxide &le; 23.0<br/>gini = 0.391<br/>samples = 15<br/>value = [4, 11]<br/>class = u>, fillcolor="#399de5a2"] ;
545 -> 546 ;
547 [label=<sulphates &le; 0.39<br/>gini = 0.26<br/>samples = 13<br/>value = [2, 11]<br/>class = u>, fillcolor="#399de5d1"] ;
546 -> 547 ;
548 [label=<gini = 0.0<br/>samples = 1<br/>value = [1, 0]<br/>class = q>, fillcolor="#e58139ff"] ;
547 -> 548 ;
549 [label=<free sulfur dioxide &le; 15.5<br/>gini = 0.153<br/>samples = 12<br/>value = [1, 11]<br/>class = u>, fillcolor="#399de5e8"] ;
547 -> 549 ;
550 [label=<total sulfur dioxide &le; 105.5<br/>gini = 0.5<br/>samples = 2<br/>value = [1, 1]<br/>class = q>, fillcolor="#e5813900"] ;
549 -> 550 ;
551 [label=<gini = 0.0<br/>samples = 1<br/>value = [1, 0]<br/>class = q>, fillcolor="#e58139ff"] ;
550 -> 551 ;
552 [label=<gini = 0.0<br/>samples = 1<br/>value = [0, 1]<br/>class = u>, fillcolor="#399de5ff"] ;
550 -> 552 ;
553 [label=<gini = 0.0<br/>samples = 10<br/>value = [0, 10]<br/>class = u>, fillcolor="#399de5ff"] ;
549 -> 553 ;
554 [label=<gini = 0.0<br/>samples = 2<br/>value = [2, 0]<br/>class = q>, fillcolor="#e58139ff"] ;
546 -> 554 ;
555 [label=<gini = 0.0<br/>samples = 19<br/>value = [0, 19]<br/>class = u>, fillcolor="#399de5ff"] ;
545 -> 555 ;
556 [label=<total sulfur dioxide &le; 96.5<br/>gini = 0.45<br/>samples = 79<br/>value = [27, 52]<br/>class = u>, fillcolor="#399de57b"] ;
544 -> 556 ;
557 [label=<sulphates &le; 0.495<br/>gini = 0.124<br/>samples = 15<br/>value = [1, 14]<br/>class = u>, fillcolor="#399de5ed"] ;
556 -> 557 ;
558 [label=<gini = 0.0<br/>samples = 14<br/>value = [0, 14]<br/>class = u>, fillcolor="#399de5ff"] ;
557 -> 558 ;
559 [label=<gini = 0.0<br/>samples = 1<br/>value = [1, 0]<br/>class = q>, fillcolor="#e58139ff"] ;
557 -> 559 ;
560 [label=<chlorides &le; 0.047<br/>gini = 0.482<br/>samples = 64<br/>value = [26, 38]<br/>class = u>, fillcolor="#399de551"] ;
556 -> 560 ;
561 [label=<sulphates &le; 0.455<br/>gini = 0.414<br/>samples = 41<br/>value = [12, 29]<br/>class = u>, fillcolor="#399de595"] ;
560 -> 561 ;
562 [label=<fixed acidity &le; 6.7<br/>gini = 0.491<br/>samples = 23<br/>value = [10, 13]<br/>class = u>, fillcolor="#399de53b"] ;
561 -> 562 ;
563 [label=<density &le; 0.992<br/>gini = 0.444<br/>samples = 12<br/>value = [8, 4]<br/>class = q>, fillcolor="#e581397f"] ;
562 -> 563 ;
564 [label=<gini = 0.0<br/>samples = 2<br/>value = [0, 2]<br/>class = u>, fillcolor="#399de5ff"] ;
563 -> 564 ;
565 [label=<residual sugar &le; 12.75<br/>gini = 0.32<br/>samples = 10<br/>value = [8, 2]<br/>class = q>, fillcolor="#e58139bf"] ;
563 -> 565 ;
566 [label=<gini = 0.0<br/>samples = 7<br/>value = [7, 0]<br/>class = q>, fillcolor="#e58139ff"] ;
565 -> 566 ;
567 [label=<pH &le; 3.19<br/>gini = 0.444<br/>samples = 3<br/>value = [1, 2]<br/>class = u>, fillcolor="#399de57f"] ;
565 -> 567 ;
568 [label=<gini = 0.0<br/>samples = 2<br/>value = [0, 2]<br/>class = u>, fillcolor="#399de5ff"] ;
567 -> 568 ;
569 [label=<gini = 0.0<br/>samples = 1<br/>value = [1, 0]<br/>class = q>, fillcolor="#e58139ff"] ;
567 -> 569 ;
570 [label=<total sulfur dioxide &le; 108.0<br/>gini = 0.298<br/>samples = 11<br/>value = [2, 9]<br/>class = u>, fillcolor="#399de5c6"] ;
562 -> 570 ;
571 [label=<free sulfur dioxide &le; 19.0<br/>gini = 0.444<br/>samples = 3<br/>value = [2, 1]<br/>class = q>, fillcolor="#e581397f"] ;
570 -> 571 ;
572 [label=<gini = 0.0<br/>samples = 1<br/>value = [0, 1]<br/>class = u>, fillcolor="#399de5ff"] ;
571 -> 572 ;
573 [label=<gini = 0.0<br/>samples = 2<br/>value = [2, 0]<br/>class = q>, fillcolor="#e58139ff"] ;
571 -> 573 ;
574 [label=<gini = 0.0<br/>samples = 8<br/>value = [0, 8]<br/>class = u>, fillcolor="#399de5ff"] ;
570 -> 574 ;
575 [label=<free sulfur dioxide &le; 20.0<br/>gini = 0.198<br/>samples = 18<br/>value = [2, 16]<br/>class = u>, fillcolor="#399de5df"] ;
561 -> 575 ;
576 [label=<gini = 0.0<br/>samples = 1<br/>value = [1, 0]<br/>class = q>, fillcolor="#e58139ff"] ;
575 -> 576 ;
577 [label=<citric acid &le; 0.305<br/>gini = 0.111<br/>samples = 17<br/>value = [1, 16]<br/>class = u>, fillcolor="#399de5ef"] ;
575 -> 577 ;
578 [label=<alcohol &le; 10.65<br/>gini = 0.5<br/>samples = 2<br/>value = [1, 1]<br/>class = q>, fillcolor="#e5813900"] ;
577 -> 578 ;
579 [label=<gini = 0.0<br/>samples = 1<br/>value = [0, 1]<br/>class = u>, fillcolor="#399de5ff"] ;
578 -> 579 ;
580 [label=<gini = 0.0<br/>samples = 1<br/>value = [1, 0]<br/>class = q>, fillcolor="#e58139ff"] ;
578 -> 580 ;
581 [label=<gini = 0.0<br/>samples = 15<br/>value = [0, 15]<br/>class = u>, fillcolor="#399de5ff"] ;
577 -> 581 ;
582 [label=<fixed acidity &le; 7.0<br/>gini = 0.476<br/>samples = 23<br/>value = [14, 9]<br/>class = q>, fillcolor="#e581395b"] ;
560 -> 582 ;
583 [label=<sulphates &le; 0.41<br/>gini = 0.408<br/>samples = 7<br/>value = [2, 5]<br/>class = u>, fillcolor="#399de599"] ;
582 -> 583 ;
584 [label=<gini = 0.0<br/>samples = 2<br/>value = [2, 0]<br/>class = q>, fillcolor="#e58139ff"] ;
583 -> 584 ;
585 [label=<gini = 0.0<br/>samples = 5<br/>value = [0, 5]<br/>class = u>, fillcolor="#399de5ff"] ;
583 -> 585 ;
586 [label=<alcohol &le; 10.25<br/>gini = 0.375<br/>samples = 16<br/>value = [12, 4]<br/>class = q>, fillcolor="#e58139aa"] ;
582 -> 586 ;
587 [label=<gini = 0.0<br/>samples = 2<br/>value = [0, 2]<br/>class = u>, fillcolor="#399de5ff"] ;
586 -> 587 ;
588 [label=<density &le; 0.997<br/>gini = 0.245<br/>samples = 14<br/>value = [12, 2]<br/>class = q>, fillcolor="#e58139d4"] ;
586 -> 588 ;
589 [label=<sulphates &le; 0.445<br/>gini = 0.142<br/>samples = 13<br/>value = [12, 1]<br/>class = q>, fillcolor="#e58139ea"] ;
588 -> 589 ;
590 [label=<residual sugar &le; 3.825<br/>gini = 0.5<br/>samples = 2<br/>value = [1, 1]<br/>class = q>, fillcolor="#e5813900"] ;
589 -> 590 ;
591 [label=<gini = 0.0<br/>samples = 1<br/>value = [0, 1]<br/>class = u>, fillcolor="#399de5ff"] ;
590 -> 591 ;
592 [label=<gini = 0.0<br/>samples = 1<br/>value = [1, 0]<br/>class = q>, fillcolor="#e58139ff"] ;
590 -> 592 ;
593 [label=<gini = 0.0<br/>samples = 11<br/>value = [11, 0]<br/>class = q>, fillcolor="#e58139ff"] ;
589 -> 593 ;
594 [label=<gini = 0.0<br/>samples = 1<br/>value = [0, 1]<br/>class = u>, fillcolor="#399de5ff"] ;
588 -> 594 ;
595 [label=<citric acid &le; 0.435<br/>gini = 0.278<br/>samples = 6<br/>value = [5, 1]<br/>class = q>, fillcolor="#e58139cc"] ;
543 -> 595 ;
596 [label=<gini = 0.0<br/>samples = 5<br/>value = [5, 0]<br/>class = q>, fillcolor="#e58139ff"] ;
595 -> 596 ;
597 [label=<gini = 0.0<br/>samples = 1<br/>value = [0, 1]<br/>class = u>, fillcolor="#399de5ff"] ;
595 -> 597 ;
598 [label=<density &le; 0.992<br/>gini = 0.124<br/>samples = 30<br/>value = [2, 28]<br/>class = u>, fillcolor="#399de5ed"] ;
542 -> 598 ;
599 [label=<citric acid &le; 0.34<br/>gini = 0.5<br/>samples = 2<br/>value = [1, 1]<br/>class = q>, fillcolor="#e5813900"] ;
598 -> 599 ;
600 [label=<gini = 0.0<br/>samples = 1<br/>value = [1, 0]<br/>class = q>, fillcolor="#e58139ff"] ;
599 -> 600 ;
601 [label=<gini = 0.0<br/>samples = 1<br/>value = [0, 1]<br/>class = u>, fillcolor="#399de5ff"] ;
599 -> 601 ;
602 [label=<chlorides &le; 0.053<br/>gini = 0.069<br/>samples = 28<br/>value = [1, 27]<br/>class = u>, fillcolor="#399de5f6"] ;
598 -> 602 ;
603 [label=<gini = 0.0<br/>samples = 24<br/>value = [0, 24]<br/>class = u>, fillcolor="#399de5ff"] ;
602 -> 603 ;
604 [label=<chlorides &le; 0.057<br/>gini = 0.375<br/>samples = 4<br/>value = [1, 3]<br/>class = u>, fillcolor="#399de5aa"] ;
602 -> 604 ;
605 [label=<gini = 0.0<br/>samples = 1<br/>value = [1, 0]<br/>class = q>, fillcolor="#e58139ff"] ;
604 -> 605 ;
606 [label=<gini = 0.0<br/>samples = 3<br/>value = [0, 3]<br/>class = u>, fillcolor="#399de5ff"] ;
604 -> 606 ;
607 [label=<gini = 0.0<br/>samples = 3<br/>value = [3, 0]<br/>class = q>, fillcolor="#e58139ff"] ;
525 -> 607 ;
608 [label=<free sulfur dioxide &le; 13.0<br/>gini = 0.174<br/>samples = 145<br/>value = [14, 131]<br/>class = u>, fillcolor="#399de5e4"] ;
524 -> 608 ;
609 [label=<gini = 0.0<br/>samples = 1<br/>value = [1, 0]<br/>class = q>, fillcolor="#e58139ff"] ;
608 -> 609 ;
610 [label=<total sulfur dioxide &le; 75.5<br/>gini = 0.164<br/>samples = 144<br/>value = [13, 131]<br/>class = u>, fillcolor="#399de5e6"] ;
608 -> 610 ;
611 [label=<fixed acidity &le; 6.05<br/>gini = 0.49<br/>samples = 7<br/>value = [3, 4]<br/>class = u>, fillcolor="#399de540"] ;
610 -> 611 ;
612 [label=<gini = 0.0<br/>samples = 3<br/>value = [0, 3]<br/>class = u>, fillcolor="#399de5ff"] ;
611 -> 612 ;
613 [label=<citric acid &le; 0.26<br/>gini = 0.375<br/>samples = 4<br/>value = [3, 1]<br/>class = q>, fillcolor="#e58139aa"] ;
611 -> 613 ;
614 [label=<gini = 0.0<br/>samples = 1<br/>value = [0, 1]<br/>class = u>, fillcolor="#399de5ff"] ;
613 -> 614 ;
615 [label=<gini = 0.0<br/>samples = 3<br/>value = [3, 0]<br/>class = q>, fillcolor="#e58139ff"] ;
613 -> 615 ;
616 [label=<free sulfur dioxide &le; 95.5<br/>gini = 0.135<br/>samples = 137<br/>value = [10, 127]<br/>class = u>, fillcolor="#399de5eb"] ;
610 -> 616 ;
617 [label=<citric acid &le; 0.525<br/>gini = 0.124<br/>samples = 136<br/>value = [9, 127]<br/>class = u>, fillcolor="#399de5ed"] ;
616 -> 617 ;
618 [label=<free sulfur dioxide &le; 24.5<br/>gini = 0.1<br/>samples = 132<br/>value = [7, 125]<br/>class = u>, fillcolor="#399de5f1"] ;
617 -> 618 ;
619 [label=<fixed acidity &le; 6.95<br/>gini = 0.252<br/>samples = 27<br/>value = [4, 23]<br/>class = u>, fillcolor="#399de5d3"] ;
618 -> 619 ;
620 [label=<gini = 0.0<br/>samples = 19<br/>value = [0, 19]<br/>class = u>, fillcolor="#399de5ff"] ;
619 -> 620 ;
621 [label=<total sulfur dioxide &le; 109.0<br/>gini = 0.5<br/>samples = 8<br/>value = [4, 4]<br/>class = q>, fillcolor="#e5813900"] ;
619 -> 621 ;
622 [label=<gini = 0.0<br/>samples = 3<br/>value = [0, 3]<br/>class = u>, fillcolor="#399de5ff"] ;
621 -> 622 ;
623 [label=<citric acid &le; 0.385<br/>gini = 0.32<br/>samples = 5<br/>value = [4, 1]<br/>class = q>, fillcolor="#e58139bf"] ;
621 -> 623 ;
624 [label=<gini = 0.0<br/>samples = 4<br/>value = [4, 0]<br/>class = q>, fillcolor="#e58139ff"] ;
623 -> 624 ;
625 [label=<gini = 0.0<br/>samples = 1<br/>value = [0, 1]<br/>class = u>, fillcolor="#399de5ff"] ;
623 -> 625 ;
626 [label=<pH &le; 3.525<br/>gini = 0.056<br/>samples = 105<br/>value = [3, 102]<br/>class = u>, fillcolor="#399de5f8"] ;
618 -> 626 ;
627 [label=<alcohol &le; 10.85<br/>gini = 0.02<br/>samples = 97<br/>value = [1, 96]<br/>class = u>, fillcolor="#399de5fc"] ;
626 -> 627 ;
628 [label=<gini = 0.0<br/>samples = 92<br/>value = [0, 92]<br/>class = u>, fillcolor="#399de5ff"] ;
627 -> 628 ;
629 [label=<sulphates &le; 0.615<br/>gini = 0.32<br/>samples = 5<br/>value = [1, 4]<br/>class = u>, fillcolor="#399de5bf"] ;
627 -> 629 ;
630 [label=<gini = 0.0<br/>samples = 1<br/>value = [1, 0]<br/>class = q>, fillcolor="#e58139ff"] ;
629 -> 630 ;
631 [label=<gini = 0.0<br/>samples = 4<br/>value = [0, 4]<br/>class = u>, fillcolor="#399de5ff"] ;
629 -> 631 ;
632 [label=<density &le; 0.994<br/>gini = 0.375<br/>samples = 8<br/>value = [2, 6]<br/>class = u>, fillcolor="#399de5aa"] ;
626 -> 632 ;
633 [label=<gini = 0.0<br/>samples = 6<br/>value = [0, 6]<br/>class = u>, fillcolor="#399de5ff"] ;
632 -> 633 ;
634 [label=<gini = 0.0<br/>samples = 2<br/>value = [2, 0]<br/>class = q>, fillcolor="#e58139ff"] ;
632 -> 634 ;
635 [label=<chlorides &le; 0.047<br/>gini = 0.5<br/>samples = 4<br/>value = [2, 2]<br/>class = q>, fillcolor="#e5813900"] ;
617 -> 635 ;
636 [label=<gini = 0.0<br/>samples = 2<br/>value = [2, 0]<br/>class = q>, fillcolor="#e58139ff"] ;
635 -> 636 ;
637 [label=<gini = 0.0<br/>samples = 2<br/>value = [0, 2]<br/>class = u>, fillcolor="#399de5ff"] ;
635 -> 637 ;
638 [label=<gini = 0.0<br/>samples = 1<br/>value = [1, 0]<br/>class = q>, fillcolor="#e58139ff"] ;
616 -> 638 ;
639 [label=<residual sugar &le; 1.35<br/>gini = 0.495<br/>samples = 172<br/>value = [77, 95]<br/>class = u>, fillcolor="#399de530"] ;
523 -> 639 ;
640 [label=<density &le; 0.992<br/>gini = 0.355<br/>samples = 26<br/>value = [20, 6]<br/>class = q>, fillcolor="#e58139b3"] ;
639 -> 640 ;
641 [label=<pH &le; 3.11<br/>gini = 0.469<br/>samples = 8<br/>value = [3, 5]<br/>class = u>, fillcolor="#399de566"] ;
640 -> 641 ;
642 [label=<volatile acidity &le; 0.35<br/>gini = 0.375<br/>samples = 4<br/>value = [3, 1]<br/>class = q>, fillcolor="#e58139aa"] ;
641 -> 642 ;
643 [label=<gini = 0.0<br/>samples = 1<br/>value = [0, 1]<br/>class = u>, fillcolor="#399de5ff"] ;
642 -> 643 ;
644 [label=<gini = 0.0<br/>samples = 3<br/>value = [3, 0]<br/>class = q>, fillcolor="#e58139ff"] ;
642 -> 644 ;
645 [label=<gini = 0.0<br/>samples = 4<br/>value = [0, 4]<br/>class = u>, fillcolor="#399de5ff"] ;
641 -> 645 ;
646 [label=<density &le; 0.993<br/>gini = 0.105<br/>samples = 18<br/>value = [17, 1]<br/>class = q>, fillcolor="#e58139f0"] ;
640 -> 646 ;
647 [label=<gini = 0.0<br/>samples = 14<br/>value = [14, 0]<br/>class = q>, fillcolor="#e58139ff"] ;
646 -> 647 ;
648 [label=<volatile acidity &le; 0.335<br/>gini = 0.375<br/>samples = 4<br/>value = [3, 1]<br/>class = q>, fillcolor="#e58139aa"] ;
646 -> 648 ;
649 [label=<gini = 0.0<br/>samples = 1<br/>value = [0, 1]<br/>class = u>, fillcolor="#399de5ff"] ;
648 -> 649 ;
650 [label=<gini = 0.0<br/>samples = 3<br/>value = [3, 0]<br/>class = q>, fillcolor="#e58139ff"] ;
648 -> 650 ;
651 [label=<density &le; 0.996<br/>gini = 0.476<br/>samples = 146<br/>value = [57, 89]<br/>class = u>, fillcolor="#399de55c"] ;
639 -> 651 ;
652 [label=<free sulfur dioxide &le; 20.5<br/>gini = 0.427<br/>samples = 110<br/>value = [34, 76]<br/>class = u>, fillcolor="#399de58d"] ;
651 -> 652 ;
653 [label=<citric acid &le; 0.225<br/>gini = 0.491<br/>samples = 23<br/>value = [13, 10]<br/>class = q>, fillcolor="#e581393b"] ;
652 -> 653 ;
654 [label=<gini = 0.0<br/>samples = 4<br/>value = [0, 4]<br/>class = u>, fillcolor="#399de5ff"] ;
653 -> 654 ;
655 [label=<pH &le; 3.285<br/>gini = 0.432<br/>samples = 19<br/>value = [13, 6]<br/>class = q>, fillcolor="#e5813989"] ;
653 -> 655 ;
656 [label=<free sulfur dioxide &le; 12.5<br/>gini = 0.278<br/>samples = 12<br/>value = [10, 2]<br/>class = q>, fillcolor="#e58139cc"] ;
655 -> 656 ;
657 [label=<gini = 0.0<br/>samples = 1<br/>value = [0, 1]<br/>class = u>, fillcolor="#399de5ff"] ;
656 -> 657 ;
658 [label=<alcohol &le; 10.35<br/>gini = 0.165<br/>samples = 11<br/>value = [10, 1]<br/>class = q>, fillcolor="#e58139e6"] ;
656 -> 658 ;
659 [label=<sulphates &le; 0.355<br/>gini = 0.5<br/>samples = 2<br/>value = [1, 1]<br/>class = q>, fillcolor="#e5813900"] ;
658 -> 659 ;
660 [label=<gini = 0.0<br/>samples = 1<br/>value = [1, 0]<br/>class = q>, fillcolor="#e58139ff"] ;
659 -> 660 ;
661 [label=<gini = 0.0<br/>samples = 1<br/>value = [0, 1]<br/>class = u>, fillcolor="#399de5ff"] ;
659 -> 661 ;
662 [label=<gini = 0.0<br/>samples = 9<br/>value = [9, 0]<br/>class = q>, fillcolor="#e58139ff"] ;
658 -> 662 ;
663 [label=<density &le; 0.993<br/>gini = 0.49<br/>samples = 7<br/>value = [3, 4]<br/>class = u>, fillcolor="#399de540"] ;
655 -> 663 ;
664 [label=<total sulfur dioxide &le; 87.5<br/>gini = 0.32<br/>samples = 5<br/>value = [1, 4]<br/>class = u>, fillcolor="#399de5bf"] ;
663 -> 664 ;
665 [label=<gini = 0.0<br/>samples = 1<br/>value = [1, 0]<br/>class = q>, fillcolor="#e58139ff"] ;
664 -> 665 ;
666 [label=<gini = 0.0<br/>samples = 4<br/>value = [0, 4]<br/>class = u>, fillcolor="#399de5ff"] ;
664 -> 666 ;
667 [label=<gini = 0.0<br/>samples = 2<br/>value = [2, 0]<br/>class = q>, fillcolor="#e58139ff"] ;
663 -> 667 ;
668 [label=<chlorides &le; 0.045<br/>gini = 0.366<br/>samples = 87<br/>value = [21, 66]<br/>class = u>, fillcolor="#399de5ae"] ;
652 -> 668 ;
669 [label=<alcohol &le; 10.94<br/>gini = 0.211<br/>samples = 50<br/>value = [6, 44]<br/>class = u>, fillcolor="#399de5dc"] ;
668 -> 669 ;
670 [label=<fixed acidity &le; 7.25<br/>gini = 0.183<br/>samples = 49<br/>value = [5, 44]<br/>class = u>, fillcolor="#399de5e2"] ;
669 -> 670 ;
671 [label=<residual sugar &le; 13.075<br/>gini = 0.053<br/>samples = 37<br/>value = [1, 36]<br/>class = u>, fillcolor="#399de5f8"] ;
670 -> 671 ;
672 [label=<gini = 0.0<br/>samples = 35<br/>value = [0, 35]<br/>class = u>, fillcolor="#399de5ff"] ;
671 -> 672 ;
673 [label=<free sulfur dioxide &le; 24.5<br/>gini = 0.5<br/>samples = 2<br/>value = [1, 1]<br/>class = q>, fillcolor="#e5813900"] ;
671 -> 673 ;
674 [label=<gini = 0.0<br/>samples = 1<br/>value = [0, 1]<br/>class = u>, fillcolor="#399de5ff"] ;
673 -> 674 ;
675 [label=<gini = 0.0<br/>samples = 1<br/>value = [1, 0]<br/>class = q>, fillcolor="#e58139ff"] ;
673 -> 675 ;
676 [label=<citric acid &le; 0.32<br/>gini = 0.444<br/>samples = 12<br/>value = [4, 8]<br/>class = u>, fillcolor="#399de57f"] ;
670 -> 676 ;
677 [label=<sulphates &le; 0.32<br/>gini = 0.32<br/>samples = 5<br/>value = [4, 1]<br/>class = q>, fillcolor="#e58139bf"] ;
676 -> 677 ;
678 [label=<gini = 0.0<br/>samples = 1<br/>value = [0, 1]<br/>class = u>, fillcolor="#399de5ff"] ;
677 -> 678 ;
679 [label=<gini = 0.0<br/>samples = 4<br/>value = [4, 0]<br/>class = q>, fillcolor="#e58139ff"] ;
677 -> 679 ;
680 [label=<gini = 0.0<br/>samples = 7<br/>value = [0, 7]<br/>class = u>, fillcolor="#399de5ff"] ;
676 -> 680 ;
681 [label=<gini = 0.0<br/>samples = 1<br/>value = [1, 0]<br/>class = q>, fillcolor="#e58139ff"] ;
669 -> 681 ;
682 [label=<citric acid &le; 0.255<br/>gini = 0.482<br/>samples = 37<br/>value = [15, 22]<br/>class = u>, fillcolor="#399de551"] ;
668 -> 682 ;
683 [label=<pH &le; 3.36<br/>gini = 0.245<br/>samples = 7<br/>value = [6, 1]<br/>class = q>, fillcolor="#e58139d4"] ;
682 -> 683 ;
684 [label=<gini = 0.0<br/>samples = 6<br/>value = [6, 0]<br/>class = q>, fillcolor="#e58139ff"] ;
683 -> 684 ;
685 [label=<gini = 0.0<br/>samples = 1<br/>value = [0, 1]<br/>class = u>, fillcolor="#399de5ff"] ;
683 -> 685 ;
686 [label=<alcohol &le; 10.25<br/>gini = 0.42<br/>samples = 30<br/>value = [9, 21]<br/>class = u>, fillcolor="#399de592"] ;
682 -> 686 ;
687 [label=<sulphates &le; 0.385<br/>gini = 0.32<br/>samples = 5<br/>value = [4, 1]<br/>class = q>, fillcolor="#e58139bf"] ;
686 -> 687 ;
688 [label=<gini = 0.0<br/>samples = 1<br/>value = [0, 1]<br/>class = u>, fillcolor="#399de5ff"] ;
687 -> 688 ;
689 [label=<gini = 0.0<br/>samples = 4<br/>value = [4, 0]<br/>class = q>, fillcolor="#e58139ff"] ;
687 -> 689 ;
690 [label=<total sulfur dioxide &le; 184.0<br/>gini = 0.32<br/>samples = 25<br/>value = [5, 20]<br/>class = u>, fillcolor="#399de5bf"] ;
686 -> 690 ;
691 [label=<volatile acidity &le; 0.505<br/>gini = 0.227<br/>samples = 23<br/>value = [3, 20]<br/>class = u>, fillcolor="#399de5d9"] ;
690 -> 691 ;
692 [label=<density &le; 0.992<br/>gini = 0.165<br/>samples = 22<br/>value = [2, 20]<br/>class = u>, fillcolor="#399de5e6"] ;
691 -> 692 ;
693 [label=<gini = 0.0<br/>samples = 1<br/>value = [1, 0]<br/>class = q>, fillcolor="#e58139ff"] ;
692 -> 693 ;
694 [label=<chlorides &le; 0.047<br/>gini = 0.091<br/>samples = 21<br/>value = [1, 20]<br/>class = u>, fillcolor="#399de5f2"] ;
692 -> 694 ;
695 [label=<chlorides &le; 0.046<br/>gini = 0.444<br/>samples = 3<br/>value = [1, 2]<br/>class = u>, fillcolor="#399de57f"] ;
694 -> 695 ;
696 [label=<gini = 0.0<br/>samples = 2<br/>value = [0, 2]<br/>class = u>, fillcolor="#399de5ff"] ;
695 -> 696 ;
697 [label=<gini = 0.0<br/>samples = 1<br/>value = [1, 0]<br/>class = q>, fillcolor="#e58139ff"] ;
695 -> 697 ;
698 [label=<gini = 0.0<br/>samples = 18<br/>value = [0, 18]<br/>class = u>, fillcolor="#399de5ff"] ;
694 -> 698 ;
699 [label=<gini = 0.0<br/>samples = 1<br/>value = [1, 0]<br/>class = q>, fillcolor="#e58139ff"] ;
691 -> 699 ;
700 [label=<gini = 0.0<br/>samples = 2<br/>value = [2, 0]<br/>class = q>, fillcolor="#e58139ff"] ;
690 -> 700 ;
701 [label=<fixed acidity &le; 7.15<br/>gini = 0.461<br/>samples = 36<br/>value = [23, 13]<br/>class = q>, fillcolor="#e581396f"] ;
651 -> 701 ;
702 [label=<pH &le; 3.53<br/>gini = 0.48<br/>samples = 15<br/>value = [6, 9]<br/>class = u>, fillcolor="#399de555"] ;
701 -> 702 ;
703 [label=<chlorides &le; 0.042<br/>gini = 0.375<br/>samples = 12<br/>value = [3, 9]<br/>class = u>, fillcolor="#399de5aa"] ;
702 -> 703 ;
704 [label=<gini = 0.0<br/>samples = 4<br/>value = [0, 4]<br/>class = u>, fillcolor="#399de5ff"] ;
703 -> 704 ;
705 [label=<volatile acidity &le; 0.305<br/>gini = 0.469<br/>samples = 8<br/>value = [3, 5]<br/>class = u>, fillcolor="#399de566"] ;
703 -> 705 ;
706 [label=<gini = 0.0<br/>samples = 3<br/>value = [0, 3]<br/>class = u>, fillcolor="#399de5ff"] ;
705 -> 706 ;
707 [label=<chlorides &le; 0.052<br/>gini = 0.48<br/>samples = 5<br/>value = [3, 2]<br/>class = q>, fillcolor="#e5813955"] ;
705 -> 707 ;
708 [label=<total sulfur dioxide &le; 124.0<br/>gini = 0.444<br/>samples = 3<br/>value = [1, 2]<br/>class = u>, fillcolor="#399de57f"] ;
707 -> 708 ;
709 [label=<gini = 0.0<br/>samples = 1<br/>value = [1, 0]<br/>class = q>, fillcolor="#e58139ff"] ;
708 -> 709 ;
710 [label=<gini = 0.0<br/>samples = 2<br/>value = [0, 2]<br/>class = u>, fillcolor="#399de5ff"] ;
708 -> 710 ;
711 [label=<gini = 0.0<br/>samples = 2<br/>value = [2, 0]<br/>class = q>, fillcolor="#e58139ff"] ;
707 -> 711 ;
712 [label=<gini = 0.0<br/>samples = 3<br/>value = [3, 0]<br/>class = q>, fillcolor="#e58139ff"] ;
702 -> 712 ;
713 [label=<volatile acidity &le; 0.325<br/>gini = 0.308<br/>samples = 21<br/>value = [17, 4]<br/>class = q>, fillcolor="#e58139c3"] ;
701 -> 713 ;
714 [label=<gini = 0.0<br/>samples = 11<br/>value = [11, 0]<br/>class = q>, fillcolor="#e58139ff"] ;
713 -> 714 ;
715 [label=<chlorides &le; 0.041<br/>gini = 0.48<br/>samples = 10<br/>value = [6, 4]<br/>class = q>, fillcolor="#e5813955"] ;
713 -> 715 ;
716 [label=<gini = 0.0<br/>samples = 3<br/>value = [0, 3]<br/>class = u>, fillcolor="#399de5ff"] ;
715 -> 716 ;
717 [label=<chlorides &le; 0.155<br/>gini = 0.245<br/>samples = 7<br/>value = [6, 1]<br/>class = q>, fillcolor="#e58139d4"] ;
715 -> 717 ;
718 [label=<gini = 0.0<br/>samples = 6<br/>value = [6, 0]<br/>class = q>, fillcolor="#e58139ff"] ;
717 -> 718 ;
719 [label=<gini = 0.0<br/>samples = 1<br/>value = [0, 1]<br/>class = u>, fillcolor="#399de5ff"] ;
717 -> 719 ;
720 [label=<alcohol &le; 12.025<br/>gini = 0.152<br/>samples = 989<br/>value = [82, 907]<br/>class = u>, fillcolor="#399de5e8"] ;
522 -> 720 ;
721 [label=<volatile acidity &le; 0.532<br/>gini = 0.216<br/>samples = 575<br/>value = [71, 504]<br/>class = u>, fillcolor="#399de5db"] ;
720 -> 721 ;
722 [label=<fixed acidity &le; 6.85<br/>gini = 0.207<br/>samples = 571<br/>value = [67, 504]<br/>class = u>, fillcolor="#399de5dd"] ;
721 -> 722 ;
723 [label=<chlorides &le; 0.018<br/>gini = 0.123<br/>samples = 304<br/>value = [20, 284]<br/>class = u>, fillcolor="#399de5ed"] ;
722 -> 723 ;
724 [label=<gini = 0.0<br/>samples = 1<br/>value = [1, 0]<br/>class = q>, fillcolor="#e58139ff"] ;
723 -> 724 ;
725 [label=<free sulfur dioxide &le; 20.5<br/>gini = 0.118<br/>samples = 303<br/>value = [19, 284]<br/>class = u>, fillcolor="#399de5ee"] ;
723 -> 725 ;
726 [label=<fixed acidity &le; 5.35<br/>gini = 0.249<br/>samples = 48<br/>value = [7, 41]<br/>class = u>, fillcolor="#399de5d3"] ;
725 -> 726 ;
727 [label=<sulphates &le; 0.73<br/>gini = 0.444<br/>samples = 3<br/>value = [2, 1]<br/>class = q>, fillcolor="#e581397f"] ;
726 -> 727 ;
728 [label=<gini = 0.0<br/>samples = 2<br/>value = [2, 0]<br/>class = q>, fillcolor="#e58139ff"] ;
727 -> 728 ;
729 [label=<gini = 0.0<br/>samples = 1<br/>value = [0, 1]<br/>class = u>, fillcolor="#399de5ff"] ;
727 -> 729 ;
730 [label=<citric acid &le; 0.365<br/>gini = 0.198<br/>samples = 45<br/>value = [5, 40]<br/>class = u>, fillcolor="#399de5df"] ;
726 -> 730 ;
731 [label=<sulphates &le; 0.375<br/>gini = 0.057<br/>samples = 34<br/>value = [1, 33]<br/>class = u>, fillcolor="#399de5f7"] ;
730 -> 731 ;
732 [label=<alcohol &le; 11.75<br/>gini = 0.375<br/>samples = 4<br/>value = [1, 3]<br/>class = u>, fillcolor="#399de5aa"] ;
731 -> 732 ;
733 [label=<gini = 0.0<br/>samples = 1<br/>value = [1, 0]<br/>class = q>, fillcolor="#e58139ff"] ;
732 -> 733 ;
734 [label=<gini = 0.0<br/>samples = 3<br/>value = [0, 3]<br/>class = u>, fillcolor="#399de5ff"] ;
732 -> 734 ;
735 [label=<gini = 0.0<br/>samples = 30<br/>value = [0, 30]<br/>class = u>, fillcolor="#399de5ff"] ;
731 -> 735 ;
736 [label=<pH &le; 3.26<br/>gini = 0.463<br/>samples = 11<br/>value = [4, 7]<br/>class = u>, fillcolor="#399de56d"] ;
730 -> 736 ;
737 [label=<gini = 0.0<br/>samples = 6<br/>value = [0, 6]<br/>class = u>, fillcolor="#399de5ff"] ;
736 -> 737 ;
738 [label=<citric acid &le; 0.44<br/>gini = 0.32<br/>samples = 5<br/>value = [4, 1]<br/>class = q>, fillcolor="#e58139bf"] ;
736 -> 738 ;
739 [label=<gini = 0.0<br/>samples = 4<br/>value = [4, 0]<br/>class = q>, fillcolor="#e58139ff"] ;
738 -> 739 ;
740 [label=<gini = 0.0<br/>samples = 1<br/>value = [0, 1]<br/>class = u>, fillcolor="#399de5ff"] ;
738 -> 740 ;
741 [label=<free sulfur dioxide &le; 29.5<br/>gini = 0.09<br/>samples = 255<br/>value = [12, 243]<br/>class = u>, fillcolor="#399de5f2"] ;
725 -> 741 ;
742 [label=<gini = 0.0<br/>samples = 75<br/>value = [0, 75]<br/>class = u>, fillcolor="#399de5ff"] ;
741 -> 742 ;
743 [label=<residual sugar &le; 0.95<br/>gini = 0.124<br/>samples = 180<br/>value = [12, 168]<br/>class = u>, fillcolor="#399de5ed"] ;
741 -> 743 ;
744 [label=<density &le; 0.991<br/>gini = 0.5<br/>samples = 2<br/>value = [1, 1]<br/>class = q>, fillcolor="#e5813900"] ;
743 -> 744 ;
745 [label=<gini = 0.0<br/>samples = 1<br/>value = [1, 0]<br/>class = q>, fillcolor="#e58139ff"] ;
744 -> 745 ;
746 [label=<gini = 0.0<br/>samples = 1<br/>value = [0, 1]<br/>class = u>, fillcolor="#399de5ff"] ;
744 -> 746 ;
747 [label=<total sulfur dioxide &le; 118.5<br/>gini = 0.116<br/>samples = 178<br/>value = [11, 167]<br/>class = u>, fillcolor="#399de5ee"] ;
743 -> 747 ;
748 [label=<fixed acidity &le; 6.75<br/>gini = 0.03<br/>samples = 66<br/>value = [1, 65]<br/>class = u>, fillcolor="#399de5fb"] ;
747 -> 748 ;
749 [label=<gini = 0.0<br/>samples = 58<br/>value = [0, 58]<br/>class = u>, fillcolor="#399de5ff"] ;
748 -> 749 ;
750 [label=<density &le; 0.99<br/>gini = 0.219<br/>samples = 8<br/>value = [1, 7]<br/>class = u>, fillcolor="#399de5db"] ;
748 -> 750 ;
751 [label=<gini = 0.0<br/>samples = 1<br/>value = [1, 0]<br/>class = q>, fillcolor="#e58139ff"] ;
750 -> 751 ;
752 [label=<gini = 0.0<br/>samples = 7<br/>value = [0, 7]<br/>class = u>, fillcolor="#399de5ff"] ;
750 -> 752 ;
753 [label=<residual sugar &le; 4.225<br/>gini = 0.163<br/>samples = 112<br/>value = [10, 102]<br/>class = u>, fillcolor="#399de5e6"] ;
747 -> 753 ;
754 [label=<density &le; 0.992<br/>gini = 0.248<br/>samples = 62<br/>value = [9, 53]<br/>class = u>, fillcolor="#399de5d4"] ;
753 -> 754 ;
755 [label=<chlorides &le; 0.029<br/>gini = 0.209<br/>samples = 59<br/>value = [7, 52]<br/>class = u>, fillcolor="#399de5dd"] ;
754 -> 755 ;
756 [label=<chlorides &le; 0.027<br/>gini = 0.5<br/>samples = 6<br/>value = [3, 3]<br/>class = q>, fillcolor="#e5813900"] ;
755 -> 756 ;
757 [label=<gini = 0.0<br/>samples = 3<br/>value = [0, 3]<br/>class = u>, fillcolor="#399de5ff"] ;
756 -> 757 ;
758 [label=<gini = 0.0<br/>samples = 3<br/>value = [3, 0]<br/>class = q>, fillcolor="#e58139ff"] ;
756 -> 758 ;
759 [label=<sulphates &le; 0.445<br/>gini = 0.14<br/>samples = 53<br/>value = [4, 49]<br/>class = u>, fillcolor="#399de5ea"] ;
755 -> 759 ;
760 [label=<free sulfur dioxide &le; 46.5<br/>gini = 0.375<br/>samples = 16<br/>value = [4, 12]<br/>class = u>, fillcolor="#399de5aa"] ;
759 -> 760 ;
761 [label=<gini = 0.0<br/>samples = 7<br/>value = [0, 7]<br/>class = u>, fillcolor="#399de5ff"] ;
760 -> 761 ;
762 [label=<sulphates &le; 0.365<br/>gini = 0.494<br/>samples = 9<br/>value = [4, 5]<br/>class = u>, fillcolor="#399de533"] ;
760 -> 762 ;
763 [label=<gini = 0.0<br/>samples = 3<br/>value = [0, 3]<br/>class = u>, fillcolor="#399de5ff"] ;
762 -> 763 ;
764 [label=<residual sugar &le; 2.25<br/>gini = 0.444<br/>samples = 6<br/>value = [4, 2]<br/>class = q>, fillcolor="#e581397f"] ;
762 -> 764 ;
765 [label=<citric acid &le; 0.355<br/>gini = 0.444<br/>samples = 3<br/>value = [1, 2]<br/>class = u>, fillcolor="#399de57f"] ;
764 -> 765 ;
766 [label=<gini = 0.0<br/>samples = 2<br/>value = [0, 2]<br/>class = u>, fillcolor="#399de5ff"] ;
765 -> 766 ;
767 [label=<gini = 0.0<br/>samples = 1<br/>value = [1, 0]<br/>class = q>, fillcolor="#e58139ff"] ;
765 -> 767 ;
768 [label=<gini = 0.0<br/>samples = 3<br/>value = [3, 0]<br/>class = q>, fillcolor="#e58139ff"] ;
764 -> 768 ;
769 [label=<gini = 0.0<br/>samples = 37<br/>value = [0, 37]<br/>class = u>, fillcolor="#399de5ff"] ;
759 -> 769 ;
770 [label=<residual sugar &le; 3.65<br/>gini = 0.444<br/>samples = 3<br/>value = [2, 1]<br/>class = q>, fillcolor="#e581397f"] ;
754 -> 770 ;
771 [label=<gini = 0.0<br/>samples = 1<br/>value = [0, 1]<br/>class = u>, fillcolor="#399de5ff"] ;
770 -> 771 ;
772 [label=<gini = 0.0<br/>samples = 2<br/>value = [2, 0]<br/>class = q>, fillcolor="#e58139ff"] ;
770 -> 772 ;
773 [label=<free sulfur dioxide &le; 30.5<br/>gini = 0.039<br/>samples = 50<br/>value = [1, 49]<br/>class = u>, fillcolor="#399de5fa"] ;
753 -> 773 ;
774 [label=<chlorides &le; 0.051<br/>gini = 0.5<br/>samples = 2<br/>value = [1, 1]<br/>class = q>, fillcolor="#e5813900"] ;
773 -> 774 ;
775 [label=<gini = 0.0<br/>samples = 1<br/>value = [1, 0]<br/>class = q>, fillcolor="#e58139ff"] ;
774 -> 775 ;
776 [label=<gini = 0.0<br/>samples = 1<br/>value = [0, 1]<br/>class = u>, fillcolor="#399de5ff"] ;
774 -> 776 ;
777 [label=<gini = 0.0<br/>samples = 48<br/>value = [0, 48]<br/>class = u>, fillcolor="#399de5ff"] ;
773 -> 777 ;
778 [label=<residual sugar &le; 2.25<br/>gini = 0.29<br/>samples = 267<br/>value = [47, 220]<br/>class = u>, fillcolor="#399de5c9"] ;
722 -> 778 ;
779 [label=<total sulfur dioxide &le; 92.5<br/>gini = 0.375<br/>samples = 108<br/>value = [27, 81]<br/>class = u>, fillcolor="#399de5aa"] ;
778 -> 779 ;
780 [label=<gini = 0.0<br/>samples = 21<br/>value = [0, 21]<br/>class = u>, fillcolor="#399de5ff"] ;
779 -> 780 ;
781 [label=<alcohol &le; 11.35<br/>gini = 0.428<br/>samples = 87<br/>value = [27, 60]<br/>class = u>, fillcolor="#399de58c"] ;
779 -> 781 ;
782 [label=<chlorides &le; 0.039<br/>gini = 0.282<br/>samples = 47<br/>value = [8, 39]<br/>class = u>, fillcolor="#399de5cb"] ;
781 -> 782 ;
783 [label=<gini = 0.0<br/>samples = 18<br/>value = [0, 18]<br/>class = u>, fillcolor="#399de5ff"] ;
782 -> 783 ;
